[[-0.04707011109279068, 0.002359081993655491, -0.0019617920547343884, -0.002053720075754138, 0.04315880140165185, -0.024394997079682415, 0.11382973914755067, 0.014331481496721045, -0.005866454018726127, 0.06372031287349128, 0.01688463109008998, -0.0006993793013454269, -0.0038221951825722802, 0.009519328022262694, 0.036438434686327494, 0.001773397188315107, 0.10529091132730527, 0.07924237742739848, -0.045127598511312025, 0.008968037476539162, -0.007017496530648096, 0.005966774501717807, -0.03532093561699351, 0.009672177598056893, 0.01603184122693023, 0.025220689622878077, 0.03207808890737758, 0.005585893972859465, 0.009417336868164834, 0.06812011035653114, -0.17690489106296042, 0.051860509079626124, -0.0016185248230367755, -0.03892085893581515, -0.013729278006016438, 0.008057862171391287, -0.02381200587301569, -0.17177367021056758, 0.03824290640809381, 0.047739707233430406, 0.05365938830511596, 0.014931880558588932, 0.10391931027286083, 0.005170335453266081, -0.009937521096495051, 0.09854039700239842, 0.0014956112115672012, -0.005707680741477208, -0.03224531171425753, 0.10089689681901158, 0.02322768779551318, -0.001804566687287302, 0.02582528807041519, 0.013019232193996094, 0.00761658014410886, 0.01160873462285738, 0.0023696317341916967, 0.024302872742744827, 0.019444268075525812, -0.010010968500460243, 0.10975627453645137, 0.02000848138213265, 0.030907267757542052, -0.061696447034347096, -0.11807391604487961, 0.03216867123709682, -0.020629658609994092, 0.057813938108079825, -0.0014686890804753282, 0.027464504465375458, -0.019563796049190573, 0.012025433792497526, 0.029187218306885334, -0.0007499747623294, -0.01185314052246061, -0.020234159070274677, -0.024419186636419562, -0.02031826807148495, 0.08455727929155814, -0.023102174572083977, -0.014249260574566833, -0.11044472582792918, 0.010574912591955147, 0.032738003669788227, -0.017946726372233834, 0.12627418403365998, -0.04668878955046407, -0.00014693428418761272, 0.030253258610035097, 0.08656537256587536, 0.016135273284645098, 0.015272083007750459, -0.02180721665635237, -0.032803303274476114, 0.06754916949148806, -0.006208371893094402, 0.005742995236219764, 0.07777236772318068, 0.018562691640079197, -0.008899075184660215, 0.03574860488340835, -0.025649102787684185, 0.07118270306878186, -0.006792895106373396, -0.0037251491159393515, -0.021233542453349817, 0.03890605641356142, 0.044966874566650765, -0.037964325617690475, -0.009448490835494691, 0.0016199978472575527, 0.05025786125529545, 0.055970192484882775, 0.05948753552432353, 0.06345186080825119, 0.011958807684983006, 0.033891545215559815, -0.011657893645432087, 0.0390874037816275, 0.01837379543345076, 0.012490266543769644, 0.003174610707081482, 0.016101309411259902, -0.01876096268422686, 0.009089592375039198, 0.15982872560322606, 0.06413164161654997, -0.021321039685420366], [-0.0008671715094602569, -0.053283453309960815, 0.013676672901843179, 0.037069884453766945, -0.027314673266785085, 0.00190480024542013, 0.15805820426970915, 0.018466971601404224, -0.005226892758244226, 0.005847172616217886, 0.0344783260889772, 0.08019799378346919, 0.08713102523231393, 0.0705612809499582, 0.08757985334871403, -0.011266634004771145, 0.04680313792679381, 0.030922229119606837, -0.022135618452201144, 0.09603709075179485, 0.030958685345211994, 0.06402502312132097, -0.03823917109997342, -0.0004907978146684645, 0.01218221362383521, 0.0562271141290389, -0.032580586972905945, 0.06820503272222618, 0.09178685675702136, -0.00539362080515051, 0.04583753076120367, 0.19229458711610395, 0.006536256096181899, 0.1421307112289504, 0.1299735787002922, 0.03193299908388732, -0.03162465458304737, 0.04836792044800732, 0.059050663512589266, -0.04065313990573214, 0.06009371033536165, -0.008047598191844807, 0.033165295070072924, -0.025733592535880617, -0.0029847218510969877, 0.07685417537660687, -0.023103034087647484, 0.08075665643705829, 0.08805851220161318, 0.052486687361226844, 0.033200785262252466, 0.02971344892890135, 0.003364499157608147, 0.18551098529321347, -0.0005659877751322572, -0.007642536072125015, -0.0023727623581419103, -0.0038196099096695565, 0.02629803664291625, -0.04557392018990577, 0.061839160683655615, 0.02542471527939186, -0.03194494626151073, 0.00026750616247212184], [-0.2714291217584309, 0.3937048900022668, -0.0922831209644839, 0.001686853061177938, 0.13155668672713228, 0.41444685192416975, -0.07029273431692003, 0.09375719009793279, -0.48726109801214756, -0.1138863967606985]]