[[[0.017190823647173982, 0.03101089285340597, 0.002588413867629702, 0.008546196544181905, 0.04979710939592157, -0.048338094605620566, -0.035826818210035936, -0.011589403508373697, 0.048834361471597414, -0.04094167021620746, 0.01853090816664025, 0.0008955757748885795, -0.043684936904426486, -0.0226806024520532, 0.013653185389861077, -0.03488116049670819, -0.03409053015689872, 0.02152659204592058, 0.014802449094989668, 0.003984218576762355, -0.001896664030359574, -0.036078381745199985, -0.006501728307878774, 0.040050813528375986, 0.005438707314148261, 0.020562321935104988, -0.04583346081591877, 0.04986845111879079, -0.0052461437657490345, -0.03640773978531027, -0.014008928057575443, -0.02454194096564142, 0.007626812059023814, -0.045316869504957565, 0.02041375923937998, -0.019325268560045832, -0.040541864502535045, -0.015225205233598266, -0.012994977228441255, 0.0063731618705706585, -0.01915953545078067, -0.019078302172652557, 0.016537020032553685, 0.026570292307965416, 0.022168124657520175, 0.04263855760542858, -0.029506125153454927, 0.024711615813312944, -0.048425292980624104, 0.04361737624564971, -0.00845167932072139, 0.0027880235165259185, 0.0095213527630169, 0.04363767968723286, 0.034221146226437696, 0.027459419268808818, 0.04003100194018677, -0.03000075129633474, -0.04389685529766188, -0.047856813245772, -0.03878898428659269, -0.04336702845624572, 0.0010065257630273632, -0.018345486313037354, -0.04578361733678256, -0.04118591235641228, -0.053788540554636076, -0.035848153337031126, 0.005053747755706361, -0.019235534328666256, 0.012141945566975438, -0.041634606917535844, -0.02428571179786311, 0.003565468785175654, 0.029782332019951833, 0.008769737145784646, -3.7001819257243344e-05, 0.02154156278129182, 0.014413213581061488, -0.002766163965360332, 0.024536847458439735, 0.049109630899418937, 0.017947340977663796, -0.04885633901501199, -0.03577071701029074, 0.04450356609817685, 0.020259067825567478, 0.034742877891799126, -0.005701242998130721, -0.01688920544594461, 0.010696680479436282, -0.03191566673156855, -0.03861661012346088, 0.032385528264086104, 0.0007416656964485085, 0.024960040396453186, -0.025976040649842203, 0.04392163770355231, 0.036415500619041544, -0.026570886870007127, -0.055475489427389835, 0.019724273084926212, -0.009675032388089654, 0.0071233309827961385, 0.014317561747203875, -0.02101648169591092, -0.0018138150852624643, -0.00608528207102502, 0.022350501379490045, -0.0030931151902281896, -0.02040723773962342, 0.03300916177125212, 0.03647333634221347, 0.00812033619195292, 0.008395225123485017, -0.006125932299863938, -0.044660472999881934, 0.03076145453332643, 0.006071514431315277, -0.03989418880694291, -0.019637476042743168, -0.004477259210799059, 0.04250694861190798, 0.05013303613169847, 0.02563823333715343, 0.030208409205334713, 0.030110752267508444, -0.03225939274277039, -0.032486416760084, -0.003778147514325871, -0.015073398126256533, -0.06686778930178569, -0.04937474786560691, -0.08593057688990849, -0.025429647155090274, -0.012481031219294714, 0.042151190495815866, 0.01886264104261862, -0.03551159813535387, -0.020736880362655377, 0.0014463859927344447, -0.033151452884973724, -0.04607310662990372, 0.00019241387381737862, 0.016684038042153716, 0.011136614089197453, -0.013731035564171601, -0.019103838805219174, -0.005141524805821372, -0.0037854422709891556, 0.019736537136877706, 0.03238866465903382, -0.05285418355398181, -0.037366998909474335, -0.04400090344644534, -0.07618246786726171, -0.09664112415673631, -0.0649742332152444, -0.07347893981199714, -0.08011922193841871, -0.03701055865345268, -0.0572740432269377, -0.0461867264914593, -0.0779867422895065, -0.045954031755306476, 0.009235447243994664, -0.002769330553973107, 0.030509981792465692, 0.02076428070439952, -0.04588019788239521, 0.019706577369035642, 0.021398269751874244, -0.04343260591601715, -0.03003809399789226, 0.04070539176967462, -0.020736286468076754, -0.04650512328072411, -0.0007023700038914216, 0.03053841305539343, -0.004484058613436166, 0.01774269674502305, -0.05007920682072227, -0.06730026184532842, -0.10097567317762624, -0.08595566057407387, -0.0878338418447136, 0.021537321261904042, -0.026588294328481095, -0.003998530664558507, -0.009330640739416826, -0.028052045636984758, -0.08158243130516384, -0.04857151081406402, -0.025225387790262094, -0.03765956717253133, -0.011061959370381192, -0.03199069941485159, -0.021918534820957146, -0.024472133928002782, 0.03124723324227934, 0.04010657189298171, 0.04656847955385671, -0.024616390662844906, -0.023996790558427565, 0.04459451945579697, 0.0677621400369988, 0.06737944443228115, 0.0068848298607216115, -0.005002193283918521, 0.06215570381408156, 0.048966913732965765, 0.0171285277812113, -0.027724066891010278, 0.06392845906206408, 0.03934351441175091, 0.04764284957542054, 0.03641446093498561, 0.01626310454262864, -0.027079223521759545, -0.07106734492787362, -0.04793765299535109, -0.06855531883435345, -0.036893471016524224, -0.00214697324532554, 0.002611900019938717, -0.049401289355485226, -0.010424432791077617, -0.006416348294656087, 0.005724030484024574, 0.04919661473266289, -0.0064341416601911405, -0.008442900634413534, 0.04375636877439704, 0.08709411103599907, 0.06271597775162076, 0.03753568596075866, 0.09343630778055151, 0.09972273113564598, 0.19304281492622352, 0.16778232573304552, 0.20823163222180882, 0.0905379909530253, 0.08458030610653876, 0.0355510781442321, 0.027314367318535315, 0.048926669457113825, 0.0401272588728359, -0.02140650985467171, -0.035476048667359594, -0.061061161652267965, -0.028041311953473636, -0.04864794370363669, 0.04573870569020123, -0.028449675203521655, -0.039541883010249614, -0.019549098439568143, 0.039880825466823845, 0.026640238526448316, 0.07175849576391347, 0.026479225485773385, 0.07347898298377677, 0.02147609116953348, 0.1181162288675873, 0.11831904725706396, 0.08370474646218762, 0.1303126035854271, 0.21282792292833072, 0.16925202813686863, 0.13098513866286818, 0.07834340770103103, 0.06509919609070978, 0.028572609285637752, 0.060623475721718584, 0.0253573368433972, 0.06234912955910102, -0.00517353678181383, 0.03534029360240493, 0.029993991081448172, 0.034770880411218244, 0.03760091048262053, 0.03474910156964878, 0.012174146814655082, 0.026860991161642353, 0.062443376988975924, 0.06927486846230632, -0.015547995825906259, 0.09126402949298258, 0.04583372864690498, 0.06414800720054618, 0.06660902740100298, 0.04381453093396039, 0.09805268761299589, 0.10737052844080942, 0.1411373253591307, 0.18139522358250534, 0.07944092263194806, 0.06369398520188303, 0.05182387957606553, 0.0006212100163525772, -0.030881514252568205, 0.05227572897024271, -0.00891864299557399, 0.04274717886522843, 0.08083438932481053, 0.03244720952331559, 0.047515373803244484, 0.03720347825399497, -0.017839716226819485, 0.03522222385536706, 0.030515614768095216, 0.05286091655270736, -0.0032460248533470143, 0.0027169687557594244, -0.017098523516508545, 0.014411920386293178, 0.008766201557775173, 0.04396649172351857, -0.026932602186672903, -0.017464448132636826, 0.05654277943054659, 0.07211128139234099, 0.04250153826494053, -0.02058650074475857, -0.04357886845090055, -0.022812852122885315, 0.03156040654997743, -0.0010335017834552421, 0.027579850199856124, 0.04157349138320205, 0.049986420683438657, 0.03649766074693786, 0.01890368463254534, 0.006888431308942608, 0.005478180486317773, -0.0029368499580454902, 0.013530019283435276, -0.016508491008439534, 0.03896028977332394, 0.029168798186415042, -0.01429018885585195, -0.02217876858414916, 0.022982159834462043, 0.009681493174503586, -0.056699973604991946, -0.010302449332143922, -0.011991349475039947, -0.035900279713445345, -0.05533290036515214, -0.07020937811827148, -0.08050983747760938, -0.08281677176688373, -0.07119195601403318, -0.04334321732724113, 0.04840522496786208, -0.0075636641088703445, 0.058034870120591095, 0.01663651091487135, 0.05091790388091212, 0.043872453494459285, 0.023487012720802163, 0.04320903648115672, -0.013153199251518047, 0.04622244043356949, 0.012866524077885105, -0.0070905944518935915, -0.030408890596933632, 0.049728893810937626, -0.002558385584588096, 0.008258889662338918, 0.020663726700279265, -0.003727912644867474, -0.029629598066221487, -0.0031734756445477626, 0.00803554443150515, -0.01382209936064804, -0.06292224003209608, -0.07111298787477342, -0.1005970449949304, -0.019751103661719983, -0.023476300504596072, -0.08332495857669955, -0.055307457490837854, 0.02933735583682545, 0.01723128531142691, -0.0004869348621408591, -0.004224284440586353, -0.033364335238255036, -0.02724861627210638, -0.007197587115953632, 0.03286163524279302, 0.020445903380109504, -0.0361895348743036, -0.049808599557211834, -0.006600161501187382, 0.0193699658117262, 0.04218154362251486, -0.05277745135894296, -0.02078568769812907, -0.05183378318298311, -0.008043862745582974, -0.015290539926996733, -0.06822398824440608, -0.039318605064414855, -0.05234751310419374, -0.021579964247914488, -0.037073928523999905, -0.0021512457875715687, -0.06030214547087558, -0.040470949493756014, -0.08320519330806002, 0.01917982278690223, 0.01702763473527178, 0.047291674447442755, 0.011315853345080356, 0.03809358931483726, 0.009589652318123016, 0.004510748419547303, 0.008903001682533418, -0.008633535852646024, -0.0008862549592964053, 0.030965427741362635, 0.03730547881940542, 0.02483387978407741, -0.05453924268308737, -0.03623787270944758, 0.02677920362014562, 0.02260614121190959, -0.004618314664724666, -0.013433861636726514, -0.05291673439701886, 0.011595264547446957, 0.002046935010561188, 0.006233342327347074, 0.011355235859217144, -0.058922558319798216, -0.07886264495605434, -0.0805725482069236, -0.032124858501294436, 0.013630249724767955, -0.016458246284513582, 0.0225262475507308, 0.01216167940366774, 0.027053224062532105, 0.02671197064074105, 0.060089289960069445, -0.017905496925867573, 0.009106792217247812, 0.042468744928585364, 0.026856399733117816, 0.002759517316886357, 0.021455537709761045, -0.0011703595718149005, -0.02781667309718439, -0.012219458585793415, -0.014677465180833646, -0.018188329846380535, -0.0069451319022757665, 0.044168067497534165, 0.0630662487312514, 0.0063286522893263066, 0.006213689058563902, -0.0884469641719891, -0.02159667962634139, -0.04700437127659227, -0.09815377776033635, -0.03340122656349528, -0.05305474138716821, 0.04402056718717627, -0.013410349486964483, 0.0033983887011790844, 0.027959469315035495, 0.02992142108278392, -0.002411688847987388, -0.019204620638971465, 0.052378055812490894, -0.03717485981392901, -0.009803660953151938, -0.037528856389796826, 0.01819319056327436, -0.02620422973792761, -0.04681568683903972, -0.044937911921440615, -0.021642760941166767, 0.027759133278834208, 0.019845654206490287, 0.037129441474100654, 0.0011648932223340676, 0.007622043946543942, -0.05877693089734718, -0.02567067188415932, -0.11257418462345524, -0.07139087894969215, -0.04489480936924368, -0.03170414687516236, -0.0013692053182881253, -0.017310242294250013, 0.007317364303888453, 0.04434385165988061, 0.011106977071543778, -5.273889343969558e-05, -0.025857170618569195, 0.05053626794264453, 0.031154661552806474, -0.03170463776767372, 0.0029206475292295657, 0.010121454653543523, 0.021586409959264606, 0.006600676494331065, -0.018954369690076522, -0.038881561950456583, -0.06921109413600879, 0.0241383206573341, -0.013522996396584611, -0.021116712430474978, 0.06387905216348788, -0.04755257358789898, -0.0022167130235044084, -0.09329642440472682, -0.08143891511691556, -0.013232370620388453, -0.04056036453912981, -0.012370867933321266, -0.030923876583668686, 0.04527025950544115, 0.020390812113148193, 0.05434309431984548, 0.07778600070376111, 0.057336821482206354, 0.029750603104190223, 0.019820632068134735, 0.03699871246607754, -0.040104208338260505, 0.017290087846464224, 0.029717670771782945, -0.00149733438932382, 0.024544808360383363, 0.05429633879634788, -0.03172446440906419, 0.01678390912688345, -0.0660602918938924, 0.034516619548863293, 0.01346625454733788, 0.0071729704317875405, -0.010948883524568402, -0.05204927440117415, -0.020440561664630826, -0.07235532753297863, -0.021949246449209873, -0.04044912588712068, -0.018528453517576954, -0.015360364453223781, 0.038527467112678265, 0.000341370904802038, 0.015560934244570128, 0.03734598759170633, 0.04045019837687538, 0.04455019311465158, -0.039147740943245316, 0.0475378211068466, -0.030893651339400238, 0.01847770047307038, 0.03913921912330254, -0.013940614946514126, 0.04557080892011449, 0.02456386034124689, 0.0026954735129339617, -0.00915140761593274, -0.017105013037501327, 0.024231794387331047, -0.013189391257185431, 0.009170179109331615, -0.03470497816966921, -0.0086967431482636, 0.04599473550751863, -0.07696073781367356, -0.0501362227458012, -0.030099152793437087, 0.02682594601964445, 0.025363497559537197, 0.050871551217153435, 0.04985816532136014, 0.005507348016953614, 0.017734854650723678, -0.0011771378485058734, 0.036258557297316134, 0.019194873346941897, 0.022565475968424654, -0.01997488990034554, 0.040551200620043186, 0.03606746733523486, -0.0258122042932877, 0.0181157473477213, 0.019531041164815004, -0.03633071635952864, 0.034556778940772186, 0.018825291650260915, -0.06493324230719981, -0.06565250683488774, -0.059010510252639765, -0.02527945602970748, 0.011612196765532514, -0.04744566400630674, -0.018976129448524875, -0.020220062863727274, -0.0310802625126074, -0.03100335121503979, -0.061090260830284626, -0.026129599358153104, 0.00860727198288045, -0.07100884078937246, 0.027989327820655444, -0.03780912451706282, -0.008414792985729395, 0.017405372308432313, 0.03500549474967479, -0.04718009817446643, 0.032059471920411885, -0.016631229052946787, -0.047629656522205625, -0.027086611844795726, -0.04170322784447472, 0.015834538490038495, 0.026878107545201323, 0.01922664025117103, -0.020435220306417805, 0.0342465603889148, -0.0551338932475868, 0.02872557931265643, -0.0053482309196090805, 0.06473446953957154, 0.041909539760885545, -0.01011264723308675, 0.04735855961973013, 0.02028940273287282, -0.04657210686015238, -0.04378977695230762, 0.0030726254843256267, -0.07836648514282032, 0.007254872698011773, -0.03603518341255753, -0.02575276993756824, -0.03396517522003669, -0.02440625762407012, -0.0018878830106483747, 0.03048826192507076, 0.0015709236817498806, 0.02807867828523824, -0.02586658492611023, -0.0015329780213875406, 0.04913711107662769, 0.022455672361043098, 0.07548474231945637, 0.043516450049663855, 0.03896413073251906, 0.012986762473739605, 0.04772194676203899, -0.006785129896017537, 0.04035376994717022, -0.01397037429001413, -0.0036089799060457506, -0.010483991339558504, -0.0012007817975555942, 0.018382910629031607, -0.03597998590195194, -0.05648598565143174, -0.013764332046558034, -0.04432286966861615, 0.0498940308694607, 0.03519172707006863, 0.011145190012224108, 0.0013516097656089147, -0.016449523255410825, -0.02182425724747529, 0.04074803055499957, 0.014502093773071028, -0.008892257781643839, -0.023430181140946773, -0.006806803564965419, 0.04782329716270977, -0.026755470613816928, 0.03471965568211173, 0.011693159624421056, 0.012761850629383823, -0.011871746383676315, 0.08861876580293268, 0.10149985525255995, 0.02490987812827352, -0.011537970836229481, 0.03638384634723859, -0.03684762997465149, 0.0068265754574066894, 0.008836977111385695, -0.04362812071425394, 0.02568247726314915, -0.030298220316895837, 0.048317919018468304, -0.004273144519163436, -0.009863059521363172, 0.014640208225532024, -0.010916182562129007, 0.0380478456034721, 0.014908364319023771, 0.006644083196837303, -0.04140363886079294, -0.03192250889872444, -0.0013995476684823772, 0.060779700538901735, 0.0449445473145303, 0.030043386966841678, -0.004277105902912995, 0.027143343134247693, 0.09931788657597189, 0.01649033387004379, 0.06504108109012947, 0.003380891069715579, 0.08130332373078998, 0.05166914429194913, 0.08024595982890663, 0.06808272316973576, 0.04925271181830441, -0.0221227017126475, 0.010053556324722613, 0.03965095083029537, 0.03879399327793795, -0.043108358982789446, -0.023397619716486816, -0.023600042925068926, 0.0038220069238795507, -0.00509426924211851, -0.046443762262638015, 0.02886569808997841, 0.03486071799698308, 0.015740809310640484, 0.01668217432046104, 0.03811211345119588, 0.057985472332646455, -0.0007685997178072795, 0.0006462629886114521, -0.005670714812207515, 0.0532798903971485, 0.032477319630022636, 0.021683386269032396, 0.049841683030837254, 0.03845015584969073, 0.006036969878705342, 0.03349379587762345, 0.053106513109549114, 0.02665517191546683, 0.02509587863292053, -0.039070519831260385, 0.04035291231961632, -0.03139748604316273, -0.04387108525598566, -0.02616059788521094, -0.035783124082817766, 0.045174632234336834, -0.031891851755463045, 0.04657301862709195, 0.0033249618573676478, -0.04188367373022972, 0.042314359092094876, 0.006189066369247883, -0.001609030754571878, -0.04387768660343305, -0.031158626628587233, 0.01738263815738505, -0.042880923166941504, 0.01624360092676487, 0.01300708842405646, 0.031038003456863698, 0.015683720368404853, -0.01468582001113822, 0.027198160650823495, 0.020514818311608514, 0.0313914593172813, 0.006635897832629355, -0.018999226227532213, 0.036404791089732505, -0.010200233295968067, 0.04484035676828356, -0.015725713665319243, 0.023343488632391742, 0.03982049086177985, -0.029973509363850327], [0.02034377753170237, 0.018008978267964694, -0.012482823054383219, 0.04910458558630015, -0.02123878842817293, 0.03182845673518662, 0.02117421359485269, -0.033916573242248914, 0.04405973771341744, -0.023402480238214597, -0.006420831129759253, 0.03218124916699979, 0.041826609197200104, 0.0026073899528126954, -0.003031867454267132, -0.0037140426584779582, -0.048444346086827274, -0.019295462166617983, -0.029859483775638476, -0.0025191444710499057, 0.00720515696983608, 0.04142469803831583, -0.0100580292337217, -0.022208596075880882, -0.03850809437441915, -0.01707621580715061, 0.014792715758340314, -0.04135065373444999, -0.021609259229109692, -0.024109205660343514, 0.014080984400168452, 0.034868693565454224, 0.01911714058355679, 0.01916798862083907, -0.0036685706421505497, -0.04474135076037919, 0.014307010002812346, -0.03234984255339143, -0.032797555083785034, 0.053158518233537275, -0.005725198411720729, 0.020371145853312973, 0.03271185329886826, -0.026036437743837827, -0.029026003869647477, -0.0034186660031525567, 0.03171515634268499, -0.008420304797171372, -0.038278730503915906, 0.01608333701998479, 0.04680835474580339, -0.02240786545908165, -0.043283244614870986, 0.03441932327935867, 0.03787890391473288, 0.015245986793105782, 0.027820171892132674, -0.03553526163342554, -0.03933296301723279, 0.04146833571110689, -0.014504254749868689, -0.034803487333701685, -0.017165588722357704, 0.026593970603769508, -0.01793347402947068, -0.041924642388793246, -0.015282364818722315, -0.02466019083847041, 0.06054431191052691, -0.02344448417716056, 0.06713683156629814, -0.0028384117539679305, -0.01151095437948374, 0.06319116714753806, 0.03886583410242321, 0.056322641531576664, -0.023679331916605716, -0.030056464726703865, 0.03628662714454797, 0.04476384551245525, -0.014480675140274967, -0.021789574359407583, 0.00730303926554261, 0.04774772342864181, -0.04544821727794688, -0.026151046752484586, -0.006486863772024558, 0.01925685608106148, -0.04918563135888998, -0.016644155292067944, 0.026321310250998216, 0.024695647667406742, 0.01154291202818286, 0.00999989182463573, 0.03516027987055762, 0.015265718209274378, 0.04964747712149629, 0.012699784738481249, 0.0031970942139733205, 0.049646115745994035, 0.06376309800671592, 0.06419470269045624, -0.021489166311570582, 0.06568316408727963, -0.016434386748311953, 0.052101491988833654, -0.047464446176914796, -0.007775375111397823, -0.011752945709825914, 0.014940352386048818, 0.048114954970479046, 0.041053711725343806, 0.02421343927982671, -0.028299450118223476, 0.038567443030839504, 0.02058148449210757, -0.03914732014513936, -0.02355090508059759, -0.03211742885886478, 0.0030827305106540252, 0.007104839934333479, 0.08753008864239366, 0.032341698499813464, 0.03189886997673443, 0.049244408914742605, 0.03829041506928595, 0.030514649679077403, -0.023996720328670992, 0.021058794646159524, -0.03841480595887137, 0.018609676127310147, 0.04355923687797108, 0.00382261519839599, -0.02661956652198066, 0.02283107037927678, -0.0031293752926659824, 0.029303406412730982, -0.0323853525847901, -0.04294233601217763, 0.0016174193619433216, 0.023315837277554232, -0.03734565982602336, -0.019396956219019105, -0.04312069040258072, 0.006884046850587492, -0.04534136395291558, 0.04022723661891315, -0.0011258768215704252, 0.06804992066375173, 0.02276141703955958, -0.004667829437098431, -0.027592726798301163, 0.030078949767980694, 0.030892313649164675, 0.034322445960835855, 0.026755329152651875, -0.008004174912314529, -0.011730843004731385, -0.020126000746032307, 0.03207033851169131, 0.016656803724838826, -0.0038551269202040297, -0.05857981552605417, -0.07581297562698834, 0.015271150501516175, 0.025604816786666186, 0.0019367829060587707, -0.029919570482475014, 0.008180482678225276, 0.014515419046492981, -0.02196133257525045, 0.016971337444708606, 0.04441179207368244, 0.052748995360639046, 0.035963402624690145, 0.0005370148945909064, -0.021898943064623304, -0.04377880526200358, -0.030958077221765388, -0.004279244134789929, -0.006622803774597269, 0.012220926457522497, -0.030104821905520184, 0.008750118826500954, 0.0173000931834859, -0.029166028765804753, -0.03910421379222741, -0.07380395622853139, -0.07954713447820819, -0.01752691177783863, -0.031668642363669015, -0.05663104048662414, -0.04529173869931278, -0.05698917993246609, -0.007029910697540727, 0.03371394267955388, -0.004719737672546753, 0.03867500519927701, -0.047786366987788105, 0.03888292997899668, 0.035931422073469034, -0.01752716459948523, -0.02968162403153711, 0.03789343738909205, -0.04376444619957241, 0.02322217446628659, -0.061151306349578674, -0.02498192389172651, 0.025860247047596457, -0.030483856506488022, 0.03493025488449117, 0.04769714525592651, -0.0013501436238892816, -0.0038235493744475557, -0.053215862235740985, -0.06532207566699551, -0.01685469384139666, -0.09109524306137465, -0.020162158523498296, -0.009549929200192118, -0.07134491063536617, 0.01227056740825388, 0.02451025955935699, -0.017348120508356674, -0.012074108129559722, -0.0401757780559081, 0.03462097734133361, 0.015167233511302886, -0.028666802977317093, -0.02084200135077952, 0.006989139021966054, -0.031854126400912376, -0.04343443104322689, -0.04677950172651866, -0.05065355902978458, 0.02764517371694931, 0.01746944580288452, 0.038904629543184764, -0.007794267380253342, 0.059462345513354005, -0.04275874313241405, -0.06541405534094352, -0.07152403207533202, -0.03546332478995145, -0.010865696004910377, 0.015906513339724006, -0.08757219291727464, -0.02730484952763497, -0.0318998408937102, -0.05901233946616392, -0.025525067313195617, -0.04583771912190372, -0.024361233931341177, -0.047484605931206146, -0.014054697317119466, 0.03547556366376998, 0.0049874566368429, 0.026599069715334843, 0.017031043178943196, -0.006817511525419956, -0.05158027437079192, -0.005824024698316039, 0.02315222124480163, 0.028982935647143236, 0.031048811206559605, -0.034705836602251565, 0.057846298350815284, -0.022905365832850456, -0.011560909427926034, -0.06678768783499721, -0.05072836029773608, -0.0014690959262664127, -0.013359264460142342, -0.040388213618706446, -0.09520273374853043, -0.010618767611940751, -0.031087156810759686, -0.025277523534242435, -0.025725011857759644, 0.008519859701229048, -0.028178287747419366, -0.04928124379837873, -0.03481735826754669, 0.03246471014506656, 0.020758600642854706, -0.011274288004648974, -0.017792272247783455, 0.008514880412127297, -0.018765091844377028, -0.012141954152482315, -0.01353480639212497, -0.006211520283460674, -0.06092321722740153, -0.02545055054421582, -0.017561446621491835, -0.05048075442948699, -0.002283044419305004, -0.028098622203239273, -0.0007462887454675246, 0.0023946585687248736, 0.02957217789003199, 0.01837519615242647, -0.04512620153528466, -0.009692147836730319, -0.03374738860767662, -0.041489450611580235, 0.021255305174425032, 0.027319532351680102, -0.041022328516555275, -0.0306972431513117, -0.047989507163364364, -0.01643029153409256, -0.03836171325074428, 0.027533442195749238, 0.03422102480462927, -0.049326349453221965, -0.013061272303567588, 0.01562841764427276, -0.005245498400765505, -0.032081544503068306, -0.08085093908669093, -0.08644894776929861, -0.03969958062019905, -0.07694869616171977, -0.03230832472372544, 0.06979837903880395, 0.047554929225125796, 0.004534762770399428, -0.022845509624297954, -0.0012578830291259731, 0.027603507077243378, -0.016184060406107606, -0.0374972712202304, -0.0062243930367842345, -0.04174617808124649, 0.03615538963750212, 0.023983355618421572, 0.015238956441659554, -0.024350914064041714, 0.003833203058465495, 0.013116771190339481, 0.011071857313457984, -0.006327796914690607, -0.018911801680397328, -0.031902172444838804, 0.018985539556541003, -0.025979404110062203, -0.005346063528519709, -0.001677445569478193, -0.02927552146312986, -0.00789641150568834, -0.04415408451760145, 0.009209956388177839, 0.0042688485438676215, 0.05508075367162447, -0.006473408602253432, -0.01338469826184264, 0.011555908619124892, -0.031498132747475, 0.012171569756148097, 0.008069794900234012, -0.003659669765728409, -0.02186425892421822, -0.006450853662219986, -0.010542262755933214, -0.020462517241938916, -0.04635958944107329, -0.02027268611549274, -0.009111930615209783, -0.010262915444572071, -0.0479816598365354, -0.04427218253234823, 0.024699332091169982, -0.025547826008274554, -0.05800309964363054, -0.02814395547055478, 0.026950286909865482, -0.046593947717372394, 0.00033089671668959944, -0.019325417120974783, 0.016363127139125532, 0.013831269531307321, 0.005995943152119036, 0.016488281156667256, 0.004105951029255833, -0.009440318985570625, -0.0004940830337307545, -0.009464046744774888, -0.021808807468195614, -0.04130759650656901, -0.021989766575878113, -0.024488839218444892, 0.0011160820440905906, 0.04125186286159128, 0.01486943185142867, -0.005238228761021754, -0.0021122113037741856, 0.02201630635833099, 0.009873573160404674, 0.00849134789461858, 0.016433658940059492, 0.020589944558976923, 0.007790288641646872, -0.044875758950652975, -0.03175161160959058, -0.0020706562683850405, 0.061052382411568885, 0.0649376156118793, 0.04831632810293392, 0.010278392377227023, 0.0233112962017981, -0.005646648570152658, 0.054854058049481784, 0.004166291706385417, -0.01872115855302787, 0.05141226922334445, 0.06455535295258759, -0.010001272735772197, 0.039491918552022165, -0.026092760451468622, -0.04985414952616103, -0.02202823541795887, 0.00365844405395822, 0.01829800999923023, 0.023831464417982253, 0.0007446854235418096, -0.014389098204498588, 0.030563061681125454, 0.006849989619533968, 0.024068749270946915, 0.015457239844630528, -0.005426460640373106, -0.022673790797081005, -0.01854455729766255, 0.05297590391560499, 0.03533657844138143, -0.006088115326485809, 0.03397389674127395, -0.037184192033664486, -0.017803425285146224, 0.05477396023681773, 0.019227984623158275, 0.051180274980360436, 0.05237175315148785, 0.04417449708607375, -0.031684660483082334, 0.045068082445164616, -0.00608925158031544, 0.010170187059251887, -0.007010751504086509, 0.040188940411089794, -0.006421055917611167, 0.03560626530373886, 0.029033026997166818, 0.026959190674015206, -0.008140487750727041, -0.0027593856826624353, -0.0047650029479688735, 0.018718855383456398, 0.06606446656312077, 0.014546066784452598, 0.015160236338332722, 0.0023023973967441647, -0.035673637413379984, -0.07108471133768969, -0.04497376776290086, 0.022503575792952556, 0.06940450151211665, 0.06281582912747329, 0.002038763502426081, 0.08252784973365458, 0.039902006175409004, 0.0010389654821623378, 0.06108436264070199, -0.027971532430603033, -0.003998862808659202, -0.008304860036856987, 0.01773111137821516, -0.015728462627964963, 0.04225295273091923, 0.050657131982077906, -0.021709903899939136, 0.001565723064790691, -0.015643037533566058, -0.0016554668760162944, -0.000691018832019636, 0.012364983231450447, 0.027462507674207406, 0.016592893931363376, 0.005861156383274284, -0.009511498108265319, -0.0352672037791039, -0.03269467273059985, -0.011950394019682859, 0.05787177265532876, 0.053692355587633744, 0.03662739576398139, 0.05788529360601535, 0.05205366783818069, -0.002337327780372134, -0.02254393884911626, 0.031823022287732844, 0.03447237081743917, 0.024689737095344326, 0.016625798441905912, 0.018877068657470523, -0.033635709738362135, 0.02769153797712779, -0.027797570234410932, 0.028804587317247887, 0.02451168246054624, 0.04726506254317682, -0.039770148751507826, -0.007009172041959746, -0.0046772336050252775, 0.010921560533977887, 0.014198001071465547, 0.01793408470048209, -0.019526067877719683, 0.028544640268414835, 0.010890472219749182, 0.04970739253802236, 0.06549836988388182, 0.04698239803285, 0.000597403613291405, 0.07770936401411052, 0.0345037229589761, 0.042448640847035084, -0.020182572604346145, -0.0317401516738242, 0.015118754088328032, 0.020432226722709012, 0.012123176301715922, 0.007473278090530481, -0.049130370611624494, 0.028168353685263468, -0.0032084180693674846, 0.02252868548648251, -0.07072958319159861, -0.034772629253312745, -0.03435946561316302, -0.017345696579710797, 0.09379657251299026, 0.09328126697929154, 0.02350128739637733, -0.008234823140723895, -0.034942378497912416, 0.019742302845972833, 0.009156914646410417, 0.011766727275112042, 0.05676253878044752, -0.010614107214884887, -0.0017609169177011392, -0.01333242780625028, -0.020114679624179913, -0.018073370318083808, -0.0345125196294315, -0.010937358845251375, -0.017419415059636772, 0.022925253415092283, -0.0274024731087531, -0.0006353602511801626, -0.03250937984492685, -0.001608396762458866, -0.04081071216279958, -0.04649236296718566, 0.02403275785477979, 0.02071091606969878, 0.015159051593891214, -0.02075610160509905, 0.0840134095554264, 0.0705986832066233, 0.06407987414081291, 0.017771731060107508, 0.07308701975494421, 0.0380667389155184, 0.06638912699089815, -0.008287822355426612, 0.006733936318570258, 0.014911667810839323, 0.024938293796943015, 0.05374846133441247, -0.04107731418541031, -0.008358700278632829, 0.0016746330602927257, 0.04773509823696328, 0.03088308109991164, -0.006724699853255522, -0.041159179892512124, -0.015114056094939963, -0.024302840942909864, 0.026443342266550523, 0.009549988319635643, -0.07196634892768122, 0.010541632812456824, -0.028261928526197726, 0.029281975694807397, 0.008021412476302975, -0.036933512883365174, 0.014643052191681398, 0.00527674621656483, 0.10449176397996264, 0.08819189637386018, 0.028938503255812095, 0.03869825995215091, -0.019493800059351304, 0.056314118080769124, 0.026414955506174457, 0.010641989570096025, -0.056337505328704456, -0.035106016251245355, 0.021797209726493686, 0.024131264078569192, 0.02987299546838789, -0.036201786921625706, -0.005410388405909575, -0.04330650078123353, 0.012350011569109325, -0.019778146330037025, 0.021171479106880765, -0.028952713140387564, 0.028310676794433994, -0.011260395219638389, -0.06311045946291473, -0.012841451240033885, 0.007582635379495947, -0.0321948474309568, 0.05918082543331358, 0.030045090655108065, -0.006817236562714704, -0.03677823039708779, 0.03065202810972222, -0.024612453804248934, -0.022697312742451674, -0.04542305761274692, 0.05348517260314526, 0.0014572931220474506, 0.03796983648802539, 0.0183055248166689, -0.013082863212096793, 0.03176683684993335, 0.005403186075834918, 0.01247022113506997, -0.012340340138698338, -0.011455562916418761, -0.0020568710001734993, 0.005898455616649596, 0.014464728310238392, 0.04152827841502497, -0.04999922889662329, 0.0027864615794065827, -0.006880370374085001, -0.04253845351277465, -0.05317668283149256, 0.03412212981669105, 0.03889147862109849, 0.02521849132417474, -0.0064149003203356715, -0.0033735288133781927, 0.011200653727787115, -0.040376832295732426, 0.025061102466693526, 0.029512463275969573, 0.01975641946302157, 0.05556195775843391, -0.01940688762383408, 0.038638159024254035, 0.046358957730824345, -0.02453612049987696, 0.028700434121473245, 0.049261482605759084, 0.027512860512516946, -0.03699987806830959, 0.000898047083480813, 0.044477242230503325, -0.024246216259294306, 0.01467017565137064, -0.05118356485447909, -0.03768280104548316, -0.01619441604608709, -0.002392200584897265, 0.015501357301771775, 0.02321538192781591, -0.03308967289144283, 0.012782089499165795, -0.04436153258536675, 0.026848067905909545, 0.0117877142582101, -0.043882867121044736, -0.026808847301636376, -0.009309044396390345, -0.006193301120148264, 0.04576235628942238, 0.003960252048836931, 0.017109785251485748, 0.013693282438074527, 0.04808216365356769, 0.04896601569269491, 0.023676330503662364, -0.040001569591086306, -0.008113819654491284, -0.04545949952113803, -0.03775791786184237, -0.005243287213411493, -0.04854737577748464, -0.0346251594336215, 0.00657263435576135, 0.01273459009876622, -0.04045430376164405, -0.037869564237947795, -0.027942050479791872, 0.004662120864810045, 0.043926415144216927, -0.0032793105606652986, -0.0012829669714469643, 0.02139118014629868, -0.05272837091324835, -0.021806222648581047, 0.005773124230520306, 0.02384695552593347, 0.0327625811115903, 0.0092139915266934, -0.021524540582260974, -0.034725773333299875, 0.030649435937223544, -0.01447922719512631, -0.04345463032775742, 0.009094172573403404, 0.0003562981561111345, -0.028556703420673693, 0.03346496451770843, 0.04468600306851895, 0.010116413097096452, -0.0018335222428044638, -0.03531683608039338, -0.04032846061434219, -0.0514636519799504, 0.026158603592239683, -0.04282281667066584, 0.013889847232932118, 0.04350312550702996, -0.014023487941071864, 0.03270812984890422, 0.033768667143595665, 0.01464798750301759, -0.024681033752453976, -0.0042537150748270585, -0.01755571382647409, -0.04243211230817078, -0.03864293303067907, -0.019232882025350756, 0.002137824915833281, -0.02408521069513382, 0.036513942098399976, -0.0004761865935985932, 0.040410684312131295, 0.02881033779234057, 0.03748140584639489, 0.007059231306367742, -0.04499250089427145, 0.02319653762619327, -0.02115462202712311, 0.0495140509256236, 0.04593913956343639, 0.007863026928799373, 0.04856787360930572, 0.03861102157454914, -0.031289915363578155, 0.002177603273178177, 0.041252616229880225, 0.04742611597316123, -0.0007823856303392246, -0.004143905236689435, -0.05041391847381134, 0.03347417969578905, -0.046201253091081834, 0.03570524603274922, 0.006768679053291826, -0.005749097736915714, 0.006925007077282979, 0.04973363040583642, 0.026556000550293703, 0.00036900608751004875, -0.00490984932909222], [-0.010295086767244622, -0.005726564218179831, -0.040387109744099585, 0.019006864689463866, -0.026475270475285795, -0.044413030807432745, 0.01219218103033467, 0.007755989864962898, -0.005705357667873479, -0.041881277290873986, -0.008878618544139683, 0.026473113236344506, -0.04688106313530738, 0.0468146188392382, -0.02681397960257327, 0.003156537903323764, 0.01567677091470814, -0.014566371184835648, -0.015894356325578386, 0.018313180072778313, 0.014041180781666685, -0.03065713563665247, -0.04291202665618056, -0.021978317190987674, -0.0028253721532005118, 0.006596600866645486, -0.027310068492535335, -0.027352515484915376, 0.002020815729090275, -0.00785361531027443, -0.04638578640002072, -0.04236467088753221, 0.004180419233643084, -0.04864913502269968, -0.02422478716424275, 0.04379931730904122, -0.04665781785850187, 0.03646351845461631, -0.0012442616889927688, -0.035824572751096816, -0.04396472926058116, 0.030676984949984238, -0.02559275269553244, -0.019770519201075143, -0.049333482201405605, 0.04440868050913685, 0.0448463199034359, 0.036342546109774485, 0.030272010047173076, 0.015326367377837434, 0.0293807393471879, -0.002183053254611589, 0.007893035589137776, -0.018228024159954902, 0.03495546079143034, -0.010994325436554642, 0.002671539205919282, 0.022210701896903374, -0.013507489477444436, 0.02980703559536276, 0.016142814175003167, -0.03239758507760844, 0.03584924234456081, 0.04580886370968292, -0.01273256716324869, -0.029129068944845876, -0.03780973638052493, -0.04892313529989168, -0.030611338502320073, 0.02112166405694748, -0.011251316009628873, -0.04245010775988233, -0.0221157297740258, -0.015087138101992184, -0.03163061959560382, -0.04375994531997005, 0.027627962064371837, 0.01955805737519929, 0.01889786847459732, -0.014832456536871517, -0.01102008779342759, 0.014382934985472978, -0.021936984247469184, 0.04906834762333115, -0.006727926283055108, 0.024299625628197888, 0.0016585726926838353, -0.02831666705144352, 0.02412388613638223, -0.02314401493265914, 0.04718667805648066, -0.00917670247489743, -0.043174744559365506, 0.03340319952023954, -0.001539652023732355, 0.008062990050358394, 0.06301813325680612, 0.029541010970009104, -0.014013741706908207, 0.032114222400332355, 0.03719809374747261, -0.00177974422983555, -0.04997100620906296, 0.030128994419818183, 0.00539328286004316, -0.03738342443981367, -0.05054826870594848, 0.03742215706272885, -0.014099892022930664, 0.04382069952009334, 0.021278770587626335, -0.02062711991027262, -0.032164674478673154, -0.02477582138039535, 0.005875961955415539, 0.01404043835656613, 0.05053282389937828, 0.03598165673612551, 0.013375384036414247, 0.025759376471016542, 0.058186495251326, -0.02867859250467476, 0.03344196501986818, 0.04316466655363572, -0.005337797240181652, 0.046981476495378, -0.011448811051694005, 0.01653609680679371, -0.009532568073574981, 0.015760681566536587, -0.016408108445655527, -0.022517849680557634, 0.020737948553188876, -0.021090918459490366, -0.01414365120231254, 0.014772560558261798, -0.02982851717233723, -0.0369904190947856, 0.006098500451727568, -0.0481167326587899, -0.0051373974040934915, -0.03326402102228739, 0.0012635337461634095, 0.040913439174202246, 0.008975638485655742, -0.010055517868946444, -0.002889482434365354, 0.03958932691791779, 0.022934039159278947, 0.02020691898920852, 0.03202291214404318, 0.06148907964250475, 0.03798764419830142, -0.026274248737519563, 0.05884915188079253, -0.0042332773912271745, -0.019420742586065222, -0.06112758429862713, -0.0521801177562227, -0.0044465607914678735, 0.027356034841646188, 0.010777260817920152, 0.019499565858286695, 0.028257825245778946, -0.03075684641407802, -0.04967494497421152, 0.04843893881562495, -0.029443700412687963, -0.04675959919731022, 0.02483179272482666, -0.014545409910303252, 0.046624062312677635, 0.03200559241567347, 0.06137161749828789, 0.0512290985893277, -0.019811429815674776, 0.040934333042612146, -0.03197543800397733, 0.014982909304595778, 0.011894241695996526, -0.009988424830801831, 0.03973495397447815, -0.015310513122251596, 0.03470122720134671, 0.02298985670050587, 0.04179154797152055, 0.019406815800473425, -0.06101602291693493, -0.013978616773595277, -0.020952400056777808, -0.05591066474461056, -0.05043486701205641, -0.011977411326792082, -0.043622999909077746, 0.02702536070081755, -0.011863402476823074, 0.009278041762370426, 0.04576953154376175, -0.0325754346763863, -0.04024021511111287, -0.007983394149736365, 0.035984438493121315, -0.028577568980855936, -0.026822457146903598, 0.041852758048745844, -0.03626025279842948, 0.009229510525644047, -0.0636987977319468, -0.059286692710604036, -0.05167006927736231, 0.04011251385399944, -0.0020245015998513723, -0.02155294860977793, -0.02293218364439675, 0.011546553436379692, 0.04125004090456468, 0.04239499909916508, -0.0366199516476614, 0.020273171792554456, 0.013644954070508575, 0.02236696233880123, -0.012469556958063796, 0.000208371306065519, -0.043490550045690114, 0.035986503557237245, -0.010493248597300497, 0.009850681633849615, 0.028854496079923485, -0.02205199446818091, 0.00506589129671589, -0.00325848897750528, 0.02015188558700238, -0.03952801585785714, -0.023224181800115228, -0.06879757497582766, -0.036597270100411874, -0.02918291406940803, 0.03979974409028186, 0.03289263448514347, 0.009945314857008962, 0.059532743249680165, 0.04567235755534096, -0.0005189395277806432, -0.026357555988918584, -0.016495947656208463, -0.021068810415031988, 0.01776047457724434, -0.030428505234562135, -0.011797095281210548, 0.03440733316355214, 0.036508509869783906, 0.0031434841777155946, -0.015368287067045768, -0.023232920673119013, -0.00513095191874372, 0.01652116641494324, 0.05899134551739228, 0.002072325337130722, 0.02801219197475638, 0.00805181925052156, -0.056041831080607216, -0.025196024140354933, -0.07548221767884795, -0.08053944261537876, 0.01962791956132242, 0.05439988245419344, -0.02038859319710753, 0.005108654730761403, 0.021762721355569385, 0.04628644192522681, 0.023633076165367858, -0.03729255918313532, 0.032455578057014475, 0.022794184160060765, -0.058768581331060825, 0.016257179348954372, -0.06810226590282531, -0.04606834660760827, -0.0351925297109953, 0.030941645173104403, 0.016547164954782607, 0.031430461199545345, 0.02431400849533065, 0.003955436447183168, -0.023810727247859785, 0.03867835043094731, -0.05487223025079158, -0.019841497877779845, -0.0811146495238011, -0.004298305232888115, -0.015522633548782824, 0.034257706909128355, 0.00433457778810931, 0.01715459186562991, 0.021740825958451594, -0.0024526337595672837, -0.0017634655118030464, 0.03456378682105972, 0.03926058267713863, 0.011735937007458784, 0.027797343408026726, 0.0112153751433746, -0.04707365741738742, -0.05223932839902488, -0.02035173798128783, 0.010539837742090954, -0.045868986827730655, -0.03110488302575638, 0.036279390261600646, -0.03534647359684865, -0.012074929159701278, -0.037883182169363365, 0.039906617414180466, -0.019318750037775657, -0.014641763915603982, 0.026099761313147438, -0.06307435863399702, -0.02621483562051822, -0.0033311561483884682, 0.02583938397389304, 0.09097035964390714, 0.005409831785736359, 0.02364026129484798, 0.01639875408997899, -0.04511222007446167, 0.026221556701242477, 0.025957495652272324, -0.007604342393441752, 0.013376396142759608, -0.004922294267483634, -0.06423425152675502, -0.015342921637792025, -0.05126600433846835, 0.025768143265917417, -0.038046992048920515, -0.02709083465147207, 0.00624303229784146, -0.035819849972430755, 0.020575894416026114, 0.05229137635968738, 0.009195638965350247, -0.006584058498525893, -0.046886553820554996, -0.01036676556450766, -0.0314655179883142, 0.01850881491600921, 0.09923007947546945, 0.10183096930382794, 0.07760714132345835, 0.029892637455930966, -0.020811202878167342, -0.01919409559104374, 0.024132212794649773, 0.02547232327798026, 0.002920778639752627, -0.02003156943497586, 0.023114114341079458, -0.05279859064083483, -0.01881363660057997, -0.03263086460470485, 0.028269454422265375, -0.0067671663172623455, 0.003386862415914935, 0.042917001707683256, 0.006256267408946335, -0.006557487497406035, 0.011812060133437417, 0.015649354931296353, -0.013834916491512219, -0.017685070203739436, 0.015767170067585445, -0.009446203421184894, 0.04535715677163372, -0.003928315357332898, 0.07594467149776844, -0.007465995844228037, 0.06042504218788053, 0.05051411103402622, 0.03491271167302199, -0.015473349178486525, 0.007408195219987869, 0.018442225065425526, -0.02398808739989754, -0.024614267516594464, -0.06173858030389156, -0.02704522301486526, -0.0093206927459402, 0.040040061181779246, -0.043305380108996934, -0.04357602311019056, 0.02826438413551317, 0.013654226648355083, -0.030737252731901695, 0.014198501985381752, 0.026555023144282493, -0.04762788267973497, 0.002301872036062129, 0.0009947067200567665, -0.04656123923550232, 0.01830694602986669, 0.02085035767467826, 0.062471909392888915, 0.04835200448663925, -0.009036034244423199, -0.001908168888502953, 0.007980087741763845, 0.02238648612328829, 0.00476868091194901, 0.03449053995871442, 0.010177227781892256, -0.01874588447655649, -0.034357003000124106, -0.031367464386723075, -0.005352515213666021, -0.014784407738880453, -0.016696935688321687, -0.05284591203319912, -0.0073617166256894975, -0.03201781998439305, -0.011346952152197677, 0.04023070217366714, -0.03664020612028165, 0.03418879404198038, -0.041933353015411415, -0.03542272972684291, 0.03490482771020543, -0.035962660223279014, 0.040743055535495024, -0.0019140431551789865, 0.0033698482376866273, -0.04950301393323895, -0.04264967697136874, 0.013751689652056167, -0.0492518015167691, -0.04084674546326426, -0.03756183240325833, 0.006941419743847668, -0.02303480739541335, 0.01103286313166265, 0.04425735804132728, -0.026705477857157475, -0.0033789211427135086, 0.0046625478896333795, -0.015232777337771052, 0.018905210518380143, -0.006752398539880866, -0.040219210041737216, -0.012215980929940721, -0.0018988046707560714, -0.00923913621565709, -0.03363892503152024, 0.0004942347138836051, -0.013687947292701012, -0.009971384653194994, -0.019819570406038184, -0.06173401316545485, -0.03525944315213762, -0.03754265993375563, -0.026084646226482863, -0.02201824717537135, -0.009963340413413405, -0.04883352519204686, 0.016216203530132926, -0.05831628977479775, -0.019241759061320356, -0.004464646263115788, -0.009867781531417565, -0.021217529289715962, 0.04013955749754424, 0.04133646166988856, 0.03456693804390826, 0.04198711545424562, -0.03276478647166357, 0.017464305987791206, 0.037191085843958, -0.020491854762440736, -0.041904368765880974, -0.010836127765761327, -0.009510662294006945, -0.046709903880428796, -0.014120115163644685, -0.007690784419065954, -0.03510361988783673, 0.022253724307180905, -0.05870274610365416, -0.07227547470264775, -0.0770650325914914, -0.08897114330968521, 0.002226356882718628, -0.04355790233578055, -0.062452784215139986, 0.020618210120584762, -0.0442924100035361, -0.03779552388003276, 0.01589429828587066, -0.027456010395774923, -0.017509099839250468, 0.04399570954287991, -0.02734414069049024, -0.016225298435780976, 0.00892567125934187, 0.023144434873640686, -0.02079280551544616, -0.007697213301152917, 0.019725934513422496, -0.010661911461186623, -0.04323151428124531, 0.005344449759165391, -0.04843441035177365, -0.0565583775697978, 0.027914708370302414, 0.0016126030686444226, -0.013400483047103827, -0.018279548318550578, -0.05603448737717726, 0.016220653786253102, -0.009008119931356641, -0.042865650492461146, 0.022010881778971855, 0.02036627014648543, -0.031835761514422814, -0.043776226197806654, -0.034916103424536625, -0.04333993780768322, -0.03944243763616885, -0.022195006965970824, 0.013429082413273502, -0.03424046064632442, 0.018069212127463263, 0.04171103204716458, -0.019129976290239322, 0.027266652199804568, 0.021144742398718046, 0.018464332968124858, 0.029979547669591357, 0.03987122360934688, -0.005871076793046844, 0.024126177922359538, -0.0196614713522065, 0.03665655917872492, -0.05631192753650466, -0.027982442256431192, -0.027709745093211346, -0.022637166395946172, 0.056270054445736316, -0.012284262771120989, 0.0748135508406204, 0.028188315076508572, 0.037486245487431735, -0.03998892828593596, 0.036490224979603976, 0.02366123566484654, -0.043036341027861254, -0.016162472932800962, -0.02382476036253833, 0.029401232009537908, -0.0434430575576985, 0.035061018282415014, -0.023078578783825684, -0.03733452016535708, -0.04179449082953149, 0.031610106172340176, 0.04183775106445688, 0.04371912125653364, -0.03455765058788177, 0.022282937936518366, -0.04090920165284624, -0.018379914092279327, -0.0050820805426700375, 0.05736036100631833, -0.01885523517772461, 0.01823867911002293, 0.037213848245909294, 0.0035339249079914606, 0.025202902901891002, 0.017906481565492693, 0.026338939650673274, -0.033473884477779076, 0.009096848471663478, 0.017224130299155697, -0.007397192923434357, -0.03484881442332519, 0.037367840018068456, -0.016903689651524723, 0.0330688242756369, 4.9200656514219504e-05, 0.028381480782324966, 0.035198353709578994, -0.03907040513306794, -0.03231631064223498, -0.026263493053345695, 0.053582132253921645, -0.035068643291450784, -0.003966459302965394, -0.03006722420482494, 0.001638734491970725, 0.042703887673786, 0.002277988973657177, 0.019006357895816454, -0.00713285452760814, -0.012302287068012792, 0.004228080218788195, 0.0012132685745774438, -0.004152136349890038, -0.005721171154687734, 0.030264376225097995, 0.006967148312005206, 0.04703460396813933, -0.03190481365742233, -0.04718643409489606, 0.04529488887351094, 0.03052041852427792, -0.039680898471393104, 0.011901203318198815, 0.025397367650603984, -0.03598513494431073, 0.04718789969569601, -0.03619476386744561, 0.0413019790443153, 0.020531221761104657, 0.0121280346897812, -0.04981288202945978, -0.01123104715941408, 0.01430876756559476, 0.014726975906701063, -0.020437635160438977, 0.02688122738090157, 0.0348273851347967, 0.022160431455617642, 0.07048060883574987, -0.010677471848159113, -4.453721039708968e-05, -0.008907835474292598, -0.005038373983549821, 0.008538936849969541, -0.032164243541373996, 0.019718849792757828, 0.029242549317004724, 0.0006594371002570573, -0.01478901757458565, -0.014240199014769216, 0.02302744690122013, 0.03890829585655198, -0.045543437815667505, 0.0018191319011630403, -0.046550777801815525, -0.009191716217483957, -0.015078962567748991, -0.01983897425775135, 0.0256331814490233, 0.039565094920317574, -0.02976246345164001, 0.03316390190027181, 0.04404527475753968, 0.033449538157259914, 0.04554935046285374, -0.01169917796441094, -0.0012734516485350571, 0.011176183306482474, -0.028601592970459454, -0.05567912066637443, -0.0222246925505975, -0.008055059624916873, -0.046256568088552164, 0.029248764612826786, 0.0075473556472381055, -0.007424741963825027, -0.024565822981795174, -0.025589857223419398, 0.04328625692041247, 0.014625910459141241, -0.03545555487935453, 0.00534524986604632, 0.0050257369960879485, -0.03527076123273875, 0.023665972567562043, 0.05296943097808429, 0.010152513154959053, 0.03395403332355127, 0.011209327170804115, 0.0022570934941263127, 0.02853700282130389, -0.013035627865856587, 0.03151213964909346, -0.011806611992706221, -0.022794232559824837, 0.005223180265427053, -0.01465291373962175, -0.04364469935200425, -0.015073916819174497, -0.042204626221618406, -0.04227488994385653, 0.02838336119492168, -0.0496116684657253, 0.04569497196754591, -0.03372728385099378, -0.02115439767012157, 0.03273566726370444, 0.0348117243917125, 0.04535277221092432, 0.03881516054106379, 0.01545708345366801, -0.01038856492133836, 0.039255835673330464, 0.044794987453682496, 0.03212444039070412, 0.02677639935894757, 0.030093027662599452, 0.04474391245430488, 0.011011636740084006, 0.031060738344038837, 0.057301214567805354, 0.06006684210071249, -0.0132982542569397, -0.022801485551898093, 0.04166205168325168, -0.024906197481330085, -0.012778046034653039, -0.001284172417298521, 0.017518061776886296, 0.0034393206200625326, 0.011896418741893162, -0.00720053174200578, -0.040374100980915456, 0.038734971589083296, -0.042900401947062405, 0.02430044455644913, 0.008092313780906602, 0.04570639839975156, -0.03948264835023463, -0.011858661689046491, 0.049177415160762544, -0.03711474777233031, -0.04579953987323165, 0.006386548156451389, -0.030907440630984453, -0.011230832214279078, 0.01012131517632525, 0.046911891853545745, 0.0004402461573715323, -0.03716494086548491, 0.03045612039247445, -0.034644691583137564, -0.0056412696153795025, 0.0036688237406856125, -0.027173965880074258, -0.03776288023003824, -0.04963015405217552, 0.04361058304564038, -0.03045430306012493, 0.034653032677964726, -0.021087146460572782, 0.03162071688589168, -0.02611871791506524, -0.035725386097402834, -0.00843301930973155, -0.03638167976426909, 0.029769587949317555, -0.006339958307435312, 0.02451958083889405, 0.03548389400050429, 0.010006801509675057, 0.0027267869134479645, 0.006859412461813904, -0.004641774481072184, -0.0007155732919306785, 0.04735955000577753, -0.019451896341160707, -0.04911675137687827, 0.0030983843245813857, -0.04435630367029075, -0.03958467914395677, -0.01198227279437564, -0.047714802628168664, -0.026661104267170672, 0.014131992785595276, -0.042123258047467825, 0.002918260551173981, 0.030692578921758532, 0.013469825680463255, -0.028549863842925207, -0.004829609317679085, -0.008497548006470679, 0.047052405078591514], [-0.018918990162039018, 0.0384825635278679, -0.006788484912332072, 0.0339299006561964, -0.02077205520859278, 0.034508022360081846, -0.04835707336090085, 0.04946948306664372, -0.011187497915018753, -0.012272131170728375, 0.03162310335183682, 0.02053512300144741, -0.0006797432853593138, -0.000511651953055854, -0.046713077987571044, 0.003579529356800181, 0.011181862421406674, -0.047994707218430244, 0.023890549848234112, 0.017099653368918534, -0.04376855110691316, 0.04345711998963014, 0.044071028576211216, -0.04256448754728018, -0.007634801929176538, -0.011358469200701405, 0.03714470337060501, -0.0065444684958957285, 0.019065799464161304, -0.016801933701657067, 0.02987930100488151, 0.007599147734958601, 0.016572786651624205, -0.03338604965089306, 0.03264317739482835, -0.006071513171910714, -0.039038139407623317, 0.04404987032519265, -0.00744998777002507, 0.041736728705140856, 0.038643947671710546, 0.04270426404389142, -0.02495270001386117, 0.04999932040896114, 0.048451339351156426, 0.03394330308613899, 0.02406762377360879, -0.016335822650011846, 0.04291788835607836, 0.040345002212704165, -0.03573048333391406, 0.04963738670443346, 0.035876363896714385, 0.007353607554711639, -0.045586838890938765, 0.0236661932472114, 0.019651057402998474, -0.03943127215675705, -0.02401365121224319, -0.03207074372917919, 0.01579241970415411, -0.04866653978732426, -0.02310961699597528, 0.021558401732976774, -0.03258445571095178, -0.007297146351588174, -0.04784665150781569, 0.025122380798074752, 0.019277071788639927, 0.03856195599168735, 0.008918322025875372, 0.01193296225371961, -0.015185600913491725, 0.022612621723290444, 0.0035549240991406793, -0.027342795417619442, 0.014541750926093205, 0.00427202514459323, -0.025456144561783044, 0.013515527974454612, 0.036069199922612476, -0.04199921775084013, 0.04700707325289571, -0.026766588344912967, 0.02772039667065647, -0.01860864270020147, -0.03981600170856831, 0.018716031866263253, -0.017451002550955632, 0.024377666511143533, 0.04742534564652861, -0.006138171192119478, -0.045357231620005385, -0.011071240032531796, -0.02837667020087818, -0.04351967733048845, 0.027324680435593135, 0.03529092362215584, -0.019367838469761735, -0.04377749280718108, 0.036752600336000384, 0.00382140725458138, 0.038434652264508526, -0.029947675446708715, 0.03390809891525357, 0.049055605794404225, 0.0591705143192187, -0.04503513715889645, -0.04126283402494213, 0.022304773190550152, -0.03586124875317999, -0.024018018102526184, -0.031835065826304736, 0.01849376989744436, 0.0435797038965564, 0.01887345989719958, -0.030273079240264712, 0.014769057488805104, -0.04500692747508657, -0.019612375446111198, -0.016623983465842887, 0.03713787098497291, 0.017671739846534164, 0.0001999607262670163, 0.026798267327812344, -0.007534967339705048, 0.026293862495201877, 0.04701849578579998, -0.011103263026604639, 0.02177445360617475, 0.01669779156140487, 0.039623083970712854, 0.026934983360179014, -0.04969641384487114, 0.037514465186481556, 0.0037716620749824073, 0.004702171092699889, 0.02021264920224858, 0.0408720805280084, -0.0026019278741700493, 0.017902235379398137, -0.026644431168665585, 0.01272107015273351, -0.043303462342311735, 0.008242979951324364, 0.018833752668818662, -0.06771433598945084, 0.011802096461086792, -0.030642322866115953, -0.039403680313509985, -0.004402546832309837, 0.04763163125563447, 0.06773555245297012, 0.0008437446390443285, 0.0037378019512064025, -0.02598575957458451, -0.003311984245637949, 0.0842995864195885, 0.0005398085718308451, -0.024199566348101925, 0.05175889116538722, -0.004238341665209454, 0.02181054290958677, 0.0071712705610170934, 0.010147946315164417, 0.06272680690761691, 0.00403210103617277, 0.04390008098162566, -0.0053747240445909065, -0.008014858153510895, -0.030965802021000917, -0.0182965901114662, 0.01585138322526559, 0.0034584279815903676, -0.06001444889836321, 0.03770126132066868, -0.046562855500784574, -0.002279197628373698, 0.024177005779997415, 0.0005456065390780448, 0.06066478980223921, -0.025565191187712947, -0.004827131138184047, 0.04846524718225219, 0.048911693843549355, 0.001965587709455224, -0.07874748567756673, 0.0357104172625953, 0.003013690193452422, 0.0059219646505346965, -0.007703056584746519, 0.0383375570746975, 0.011324966977060466, 0.025951600158694944, 0.014025521568444367, -0.016668956508730206, 0.003787625212679613, -0.04145370970994212, 0.0464122194024387, -0.05246936883541844, -0.045052578901229136, 0.005864823417817113, -0.03870093112967019, -0.016487559603101887, -0.031158207798867937, 0.04319842580603619, 0.029551196177470106, 0.03334503272229006, 0.0025764945548113543, 0.026774705998357573, 0.02279685578679783, 0.053425689793554026, 0.010849506554462825, -0.05939615215053026, 0.021604879606836023, -0.0036855379170255683, -0.08413009898096933, -0.005861547331303329, 0.014817125584274813, 0.01241833231637596, 0.0453701406593924, 0.0637955414917024, 0.03322833329054864, -0.006261464693270098, 8.915409292845637e-05, 0.009784243933436501, -0.031638927757157716, -0.020506343299308998, -0.046614794853666396, 0.0007188219289543258, 0.0186189774080065, 0.026405069571723984, 0.06546560242996577, 0.07518460143340183, -0.0055539777127409625, 0.0100361583832096, -0.021906878105796064, 0.04192737616502353, 0.011979269810744942, -0.05090175090033148, -0.029598851091758877, 0.01929804925720033, 0.010314722110473275, -0.004293329830104283, 0.004058953781122367, 0.05208052511495695, 0.015627534854704805, 0.09375497843222098, 0.11171544875331042, 0.0017573344911031063, 0.034530098476510215, 0.045715918582972144, -0.039983440659956807, -0.04504501119825514, -0.03667216616362927, 0.013061600936764915, -0.0632320804539256, -0.00966971174865276, 0.013339085302144312, 0.05261301773194565, -0.007274226477138067, 0.0577159325072806, -0.02412428006278976, 0.047050385668601015, -0.026009021057730446, -0.01645035720313905, -0.05972565481424618, -0.07693822769716084, -0.00992424373126335, 0.029769019877306152, 0.031303753942218585, 0.04344228268903895, -0.031856544622488436, 0.020128115438400117, 0.0006204481228712295, 0.016489511587034624, 0.026199731499298495, 0.07441080033941345, 0.017183023162793538, 0.042338890411581905, 0.016420018373956236, -0.00303691752412373, -0.01235811798948469, -0.05478632985460858, -0.04600429634549206, 0.007471249477531197, 0.052745287320115526, 0.01779107948023075, 0.07298663189462737, 0.07320808281825934, -0.000996565076326361, 0.02579621121856313, 0.009652543059586951, -0.0449904373719268, -0.03251965979778912, -0.06762012882743662, -0.01724306578869593, 0.03816755537137641, 0.03065659768902813, -0.0005098476312475114, 0.014558009030700566, 0.04327067497629741, 0.04095873001001009, 0.024918988136621807, 0.0784097204440419, 0.003144039302272723, 0.03647104299817901, 0.04582053342780801, 0.010706483811047756, -0.031040052859449146, -0.03839792128682105, -0.03613088280650888, 0.0025051383005380025, -0.0031473430848260836, 0.02111535531804707, 0.05658213079774359, 0.010726527899453258, 0.06751782343412698, 0.017652542129159548, -0.03387275736017579, -0.002146386731419058, -0.06307989043540672, 0.01762345778349025, -0.0878477718732286, -0.016099727265280556, 0.035825145278404656, 0.03478974792767251, 0.06681534793191207, 0.05336482955048686, -0.01827469266284339, -0.024827658457951627, 0.08188378926422289, 0.09782091297805562, -0.01789056940696773, 0.03613623312800251, -0.004328067514504404, 0.02338674690140846, -0.011127522670745307, -0.01908669337740767, -0.03288763515881063, -0.04952632077278579, 0.060494437804577056, 0.026913686880246684, 0.02966097880003711, 0.04063333858183918, 0.023491246434793663, -0.052395294047192495, -0.02425648888985084, -0.004719134156946593, 0.01140881400436715, -0.038836478654217944, -0.044652742650906296, -0.0047936667056256614, -0.02768470483435948, -0.05573681659755416, -0.01088782473562239, 0.021485220541407214, -0.018088740562379486, -0.03607452980840021, 0.02093819153388584, 0.003261537177596019, 0.0577955571211055, -0.0037903645565939897, -0.007382284895700246, 0.042520443969555934, 9.18187603206743e-05, -0.03932386424964363, 0.026213628868150287, -0.04203435603758489, -0.004067830789585439, -0.00632490386694816, 0.0040149476440756145, 0.04148005520373042, 0.05849551083775358, -0.025090113143277953, 0.06332439271171288, 0.06486953896844412, 0.03127408572486335, 0.036375684967607326, -0.052584569710362815, -0.0208236377255467, -0.04211551607026606, -0.029372804702786325, 0.017830785059343435, -0.02780008609576192, 0.012859805186371963, 0.024286527967175106, -0.015245739736849123, 0.028725967861857292, -0.032025914489571296, 0.03450705096989768, -0.006612883772426781, -0.03658219231500432, -0.04437314074553049, -0.02116174099499327, -0.013425840306745518, -0.006450166886227482, 0.017780647478595302, 0.03012191850788259, -0.04732185789522272, -0.017046172151123345, 0.03263355394610968, 0.055381873250726736, -0.008544742008095019, 0.05807091407314105, 0.010891623559583865, 0.041586623685018774, 0.003367598437680746, -0.09107608429431781, 0.030347608197207568, -0.030197088919305778, -0.0470593049993044, -0.04364181672365362, -0.00569062254089397, -0.016791543777175663, -0.02043520688328659, 0.01933405467429699, -0.0005094960294237073, -0.047367094091486074, -0.0048991287676825685, -0.020001524917475776, 0.008724743000796262, -0.012882010999740023, 0.00173554980509764, -0.017572511966608303, 0.005419755395725702, 0.03254883006851407, -0.04452940737548678, -0.00689881781183876, 0.033852056298502915, 0.06036201871627098, 0.020220584769815107, -0.0017684936837717561, 0.004702015606887308, 0.005496896556194771, -0.015501325837722159, -0.010680897198770845, -0.06438622386363117, -0.03404082810179226, -0.04670425154560883, -0.06925477652067669, -0.05494006069339879, -0.06829739066817349, -0.0016184269814367722, 0.011597423193496822, -0.03879859768646209, -0.02318993754969917, -0.017706361086602458, 0.001260986172608212, -0.04672477205229393, 0.03611417984788631, -0.024045512050893333, 0.016606624507692985, 0.010299535078138211, -0.036196460041656976, 0.032651843727511294, 0.012686078840944519, 0.06152180840371757, 0.06280924534319382, 0.035239131157279946, 0.08850965478111897, 0.010358761941552101, 0.05784993653430798, -0.04481790075838886, -0.02265781589097689, -0.028678147584491, -0.04816381189172345, -0.060236551069836816, -0.0909395009695, -0.03763249563873661, -0.043859681343894875, -0.009622585198501293, -0.021070474953542903, 0.03690961554920168, 0.030830829583954073, -0.037548668265145725, -0.010210221712347246, -0.028050883161899274, -0.013679491520611023, -0.037642934390597266, -0.02565712018080281, 0.02447899647360071, -0.016881196324555214, -0.007282125627223045, 0.00707916515190144, 0.04029549851733397, 0.03838365582446507, 0.09138172207990371, 0.08366503874790472, 0.06136979252691684, 0.011310997454006613, -0.011872152090566036, 0.006340126052018887, -0.03584903741584759, 0.033579849348198486, 0.01893760728063368, -0.05423210113402658, -0.05187934428942115, 0.014760362425312864, -0.02568159216120797, 0.05225676542940884, -0.04531994654890415, -0.04420794263600031, 0.0440025712555316, 0.045756562429790947, -0.04726222895592048, -0.00942403353722438, 0.045697894152823985, -0.001373233665790127, 0.048909708565091824, 0.0635682941883277, -0.017434486150722895, 0.0799165686790349, 0.05119764116177225, 0.0309020211798185, 0.03216616450182881, 0.012991486652498718, -0.030482299015817626, -0.06614303787591995, -0.01563670882675027, 0.02173276526690025, -0.01799324002918666, 0.005512355235506018, 0.029405219194869346, -0.027190492234068827, 0.03209969920575278, 0.0020018921616896594, 0.06595412264355094, 0.06451667665918857, 0.043142442140813225, 0.014073817145252186, -0.010144243749610057, -0.046501485209076786, 0.03524462068852584, 0.048105622393440996, 0.017239085284804966, 0.012375864572346663, 0.04314900510302101, 0.03212938925227756, 0.008819006385510007, 0.0696663826096331, 0.06905949935420311, 0.013003064541454213, 0.006893666844323875, -0.013239261913687976, -0.012895557879114722, -0.020328406358400414, -0.025937029001573703, 0.022858576068176272, 0.027929018075214, -0.03337142181670391, 0.018303802554356673, -0.01442449206249486, 0.028348754164673647, 0.011119394229771493, 0.06277726990716477, -0.003404817440649638, -0.0032120650887155844, 0.009591805840994236, -0.01816527068502996, -0.04975212271538774, -0.013626035899604698, 0.017823052527466233, -0.011873302383244416, 0.03964104124857924, 0.05436863030885123, 0.07870421513896632, 0.06812349196584971, 0.06038506898891371, 0.023708705407463757, -0.005965467475893287, -0.028475181347601276, 0.013907937419421383, -0.003704562375234673, -0.0015455657826764218, -0.023561142015186776, -0.028121786760868864, 0.016667237581598725, -0.017254740384970872, -0.004516322098519057, 0.03981312875787414, 0.03154085705783969, 0.07994377606052351, 0.02054004300010595, 0.016696643093815376, 0.013366745108585168, -0.022550230678608563, -0.032969530247092475, 0.040019117947434645, -0.02533089544066058, -0.04685633784004602, -0.03132698837620099, 0.04926938882870189, -0.03155089933024272, 0.06214854595858833, 0.032734172335109994, 0.014305673495807227, 0.010389959323947142, 0.03517611141659382, -0.019423104604027557, 0.030743065232538426, 0.026843541802561294, -0.026754042725827175, 0.015860036319909072, 0.014844994312574371, 0.012615866045180732, -0.03984419317979954, 0.03989498386383742, 0.007886300227727608, 0.0545094987105333, 0.0816672479942238, -0.01949330302395079, -0.01578816286582201, 0.05090014874261452, 0.010813307294773747, 0.011435414007915732, -0.04706020624786709, 0.03888141425034862, -0.00415811218373664, 0.03572206992927174, -0.039482726745307874, 0.02355659927441885, -0.024861443390024943, 0.023241793836391987, -0.024111713357680246, 0.03125891801445331, -0.006776263141900793, -0.001153788484046675, 0.004925586305916344, 0.02212058426176456, 0.039896581123554285, 0.06082014115022022, 0.014375903832607135, -0.008255285095764803, -0.0012109210433049016, 0.022158183611376985, 0.007994146147806186, -0.01505174791195431, -0.004303008218058958, 0.04942423328659619, 0.004787784043226979, -0.04806869306555809, -0.018172017910063416, 0.036440681840589934, -0.0401326474876284, -0.01750857625370822, 0.04301800736712211, -0.03660468776623117, -0.05349281479086829, -0.028906065721531295, -0.02934321799966336, -0.05445703989200445, 0.0400810797662407, -0.0053826601809373814, 0.017009834103813758, -0.035379708049694834, 0.0006885899702607567, 0.007345807641737746, 0.049718383903181305, 0.03498188680617806, 0.014272666726106126, -0.017839404810798685, 0.04777980918909595, 0.005985114711817241, 0.052224100256919995, 0.006706080242584535, -0.02685953831273096, 0.027138132669882405, 0.00021479491752017654, -0.04812786335374552, -0.014206496897766414, 0.021107409983877647, -0.0009595996158419329, -0.0058412978662240825, -0.04365901248497463, -0.023651577043382062, -0.05650979257903804, 0.010388166632436474, -0.03956357319180464, -0.06655064443697344, -0.05481490642308793, -0.03370065605817294, 0.00023905459124747247, 0.0541642904760166, 0.04169780725810604, 0.03894744314097917, 0.06768048456507689, -0.007467058503609578, 0.037790546455298314, 0.046885128515873724, 0.03083176479708086, 0.051234951594410195, 0.0018430277577506007, 0.03469900501395385, -0.016475845614576084, -0.002056152277239605, 0.017483449338412203, 0.02698681652132983, 0.016889387883254083, 0.043949214810762804, -0.01859561660823199, 0.04375119377369577, -0.044617358992655, -0.04352162310924088, -0.046459499374310806, -0.03424897155614028, -0.04945950254660753, -0.046061143466699414, -0.037197140209021394, -0.02408064284898065, -0.05210552929005235, -0.014197363711784095, -0.037855007272776964, 0.04387360495452851, 0.05173711069827149, 0.062074023409990964, 0.015072281251195883, 0.03546465474755946, -0.021682283901280974, -0.013735449724985237, 0.03793652901317133, 0.027396348033671202, 0.01843931888981729, -0.004591313396749044, -0.042132390978112715, 0.012608682684325374, -0.007961795647169112, 0.04648055861764655, -0.02611139632952879, -0.026283773248887587, 0.03885825357088314, -0.02976296829772495, 0.037455760081358064, -0.021921769916860505, 0.014886867931317002, 0.022294335310094025, 0.028384846529248747, -0.008707149582480625, 0.03179181311634455, -0.03353749001598807, 0.006507507857908246, -0.039810836457749015, -0.05787752044752203, 0.023673520143244618, -0.05497352651551901, -0.015800243212997334, 0.0297095499332145, 0.023481923378332062, 0.010577723486507602, 0.031065293751572805, -0.0003276039079641135, -0.0013949579859000188, -0.006231427615047769, 0.015999473209545968, 0.025938327339444768, 0.04426275163856566, -0.036224035008615096, 0.010009521103638841, -0.023167738169182873, 0.03353771047731648, 0.028286799908147586, 0.04994342488242992, 0.01968685256975595, 0.03353945986972065, 0.041162345415004006, 0.039596367677216256, 0.006269407068229705, -0.0320803233987873, 0.04626674146579765, 0.042102600054991335, -0.041999696180973926, -0.03085436875615196, -0.004864925178868527, -0.028637449564675538, 0.028570351627389894, -0.039894140070354016, -0.00025604374728304617, -0.03452276132566319, -0.0010229854304066792, 0.0427441088392705, -0.012202232521832347, 0.0012445346892742016, -0.016965311097030533, -0.023853355556871958], [0.044131689891032194, 0.017675062691669186, 0.009836017113264395, -0.008746919474553872, 0.006720557938593508, -0.01712442673261202, 0.00999627764578378, 0.007298514152425883, -0.02209464464739166, -0.03024971231537006, -0.010841789444773577, 0.029667993070076337, 0.04000959434645442, -0.026892357710172482, 0.04766310556798756, -0.01739152195626819, -0.016752537760450104, -0.045478100577683866, -0.0002551053689062721, -0.012207000183049111, -0.04053769871779848, -0.035920575285332025, 0.02360081377009753, 0.04208411079330128, -0.012650853541187213, -0.03861069863906014, 0.04464121160849116, -0.013791857687020116, -0.04059026280045611, -0.0469875365368774, -0.0291551382982735, -0.0010526651763926754, -0.021370072403231667, -0.00899950993437072, -0.01709291690851459, 0.017168934818329176, 0.01072460577192051, 0.037184706037771825, -0.010553801451271176, 0.03479746402154423, 0.04762994688731471, 0.008975451549742027, 0.01766271960421749, 0.04426354496269937, 0.034611299434673726, 0.0042433569971412465, -0.033655545376473896, 0.03621088627159746, 0.006060297949857218, 0.043341577437139296, 0.019887289485450037, -0.033140272982423176, -0.016304079556808293, -0.04259258714864178, 0.007922580615938968, 0.04210376166024726, -0.0333308599490173, 0.0379770714736289, 0.03308174535847201, -0.017648862041345262, -0.013564535847630406, -0.035529123052026754, -0.015294524018161051, 0.012111571380589612, -0.008537744668084123, 0.05664043633883099, 0.005862577374002864, -0.025908366406718807, 0.0237566595310401, -0.017435644168666328, 0.06355890561747832, -0.006445285588165247, 0.014354281314303113, 0.06935810571272572, 0.01496770493441944, -0.0180655946944583, 0.023462579523509285, 0.04862913962529219, -0.042186495860312395, -0.004333142715305203, -0.026047739655745906, -0.005292902162201914, -0.03692536824454392, 0.028098748786555463, -0.01126279393158014, -0.03363190421106436, 0.021629323779092054, 0.02392562638411912, 0.043717150506712696, 0.04791389348539165, 0.02970638474333643, -0.044222215856396685, -0.03990213914126321, -0.008554769851174504, 0.06898516414368383, -0.0007578302010556828, 0.03676642973578477, 0.004955380521953628, 0.050234609532960044, 0.05570283286291797, 0.0382476717666088, 0.029715567320419335, 0.06689340922278866, 0.06026436325094542, -0.032877005992644474, 0.02233835065674034, -0.04576970735320738, -0.025260530469399307, 0.01150494409603395, -0.013547284976931001, -0.03559148044400714, 0.0005461734080995485, -0.004229544391962359, 0.014515436608420848, 0.02588978007796907, -0.003492758119028031, 0.008017881889782386, -0.005071895782593154, -0.022116952495340198, -0.03641696386574057, 0.04666105029714697, -0.032735016660784995, 0.009610299456466418, 0.0019793398480589396, 0.05666413882613975, -0.012447155100181479, 0.04457087584233202, 0.01149591293890356, 0.0560202420928937, -0.010309752775464934, 0.008835059750452286, 0.01667402883836625, -0.039309311828628464, -0.0039513659242179705, -0.03994272235338379, 0.012375320006243255, -0.0495886933528493, 0.025428995941844158, -0.023469574075778262, -0.011393983722935682, -0.04869344855092447, 0.0454280546681736, -0.008759497476729161, 0.021485576750212076, 0.03674351864253523, 0.025230646958885695, -0.03186334632415589, -0.04273773025325379, -0.01613868765244399, 0.0452326730510412, -0.02720528290078061, -0.02780825110832253, 0.06729136893534683, 0.03502204093076295, 0.061315424471913474, 0.06827076903442207, -0.015646965753835892, 0.04126339827213019, 0.04652673749204165, -0.031185000971169215, -0.02187337244366068, -0.038836634442793797, -0.013368588781910891, -0.05019744935799085, 0.02982196163015958, -0.05236079772584081, 0.045474149803390526, 0.041805542833818654, 0.0022324022012224164, 0.04041351439745475, -0.026836648417980568, -0.008192923208861481, 0.023472770204809583, -0.04397244744522275, -0.04218035974099172, 0.03141409788011281, 0.019896882335247945, -0.028354656171264186, -0.02058088535394219, 0.0006613116240484437, -0.012783252488004238, 0.031549364354386024, 0.007800193833746707, 0.022548724848856328, -0.037510653196256565, -0.0037738105697395596, -0.016488845126264296, -0.07546792137496257, -0.047854275932617665, -0.0749382150326874, -0.06026011659918207, -0.04849085944620522, 0.04166930981435839, 0.043008241439240195, -0.0414296500535765, 0.029477488353701956, 0.01179849097363872, 0.024446631571606457, -0.002863064657059686, -0.05076303348209433, 0.03453047866772633, -0.049563921538052315, -0.05162962863703072, -0.05081670936584017, 0.021351924200612802, 0.006598521689479442, -0.0200547072676616, 0.057686915664074745, 0.03478787256257016, -0.004726384464560409, -0.03155393221474317, 0.013378202410761549, -0.040030519215897654, -0.04577890892477594, -0.06871220404425643, -0.09808793491904869, -0.0746736198008672, -0.11160454490012575, -0.05289654529989881, -0.0638165983845981, -0.054475253299813495, 0.019674726512848954, 0.023725080622853556, 0.03375604696798651, -0.02166800855931216, 0.03921816217238954, 0.002478268890300092, 0.03811626232216833, 0.024426666100033943, 0.021881731409175334, -0.061550979269783104, -0.03041597235220425, 0.010745002454236707, -0.02120223351131919, 0.016901714803678327, 0.028068250536823026, -0.007849235497078961, -0.017290076501449765, -0.01644717013225607, -0.07075167031138484, -0.06535688923772898, -0.018972362019800737, -0.14804753608794177, -0.05943219082679846, -0.07503583369713802, -0.039139631280275144, -0.03070892080721992, -0.0338688196049809, 0.020329308963811715, -0.0056209303678650385, -0.0052037414336416074, 0.03242354101757714, 0.04201207647456534, -0.041064425002953535, 0.03322029694841019, -0.01320395595489585, 0.024750370576221405, -0.047427024790560775, 0.01345708655376691, -0.01803214544491772, -0.037060515451309284, 0.006455844463305392, 0.008627868105498161, 0.012684858302725885, -0.004482234209189848, -0.05201558258447703, -0.01435468822214669, -0.056706438676989476, -0.02295123702832775, -0.09949860278972433, -0.09129961374674328, -0.08751701907302818, -0.062598907168632, -0.03839526597149981, -0.020942567739427934, -0.01432739300010095, -0.004818451070558958, 0.009741922853960236, 0.003026000654984951, -0.03745381298059654, -0.046675877855229066, -0.03050867201534016, 0.01623693094131283, -0.002883314354929334, 0.02129044007014551, -0.009769098424907034, -0.046434397695296586, 0.02468746754419316, -0.01683550248855471, 0.037276102026521034, 0.0450471614388966, -0.017113287729978183, 0.012029436082230498, 0.003991854397298554, -0.007649327706598046, -0.012661467557603457, -0.03005509677497364, -0.029960640030971767, -0.056340897574900864, 0.012496569176575191, -0.06877588981142854, 0.04374062515028393, -0.03860585031594978, -0.023572705270568383, 0.02133580640825712, 0.02976284295389127, -0.011251418876260449, 0.020756382642068978, 0.02776187950686433, 0.03142677356994436, -0.03975851309122514, -0.014468348958429748, 0.009565114748744242, -0.03746640013317776, -0.02965508928507735, -0.028856423937344427, -0.024983453674567443, -0.02729585753998668, -0.03293081220184724, -0.028996959523528244, -0.016399742359086825, -0.0053499246083576635, -0.0026312977495696922, -0.028525205153862643, -0.01881671502521699, -0.040927582878032304, -0.06105050376828514, -0.01623321758558804, -0.030319496290136663, -0.028862159019943868, -0.025043479101281012, 0.03783314908600881, -0.010663621922337897, -0.00719988319362671, 0.0065868042856739705, 0.012905554219042936, 0.035413591360938225, -0.009936024401379624, -0.03092199612813491, -0.019554397659036347, 0.01819048392933392, -0.013764873794887557, 0.015789364485343894, 0.0016448638732299574, -0.025216202783664193, -0.020928027881141377, -0.03387796778649462, 0.03732564709011066, 0.005636293815753129, -0.015378708411516858, -0.0336592305543052, -0.030934045341547572, 0.005486912851027587, -0.04225315734708211, 0.028828876469908112, 0.0079564098444772, -0.0027412618150947656, -0.0062784942375048655, 0.012289044631495634, -0.000995649207511694, 0.01591764976868883, -0.041010340249508156, 0.01814938755332917, -0.03548769925951059, 0.033403076948509254, -0.0004304492455697849, 0.033113612739561836, 0.0077614808740191586, -0.05217292559463141, -0.044711812862935206, -0.011571956799567028, -0.06413181450190136, -0.05914899764733008, -0.051004676716003235, -0.029446609715683365, 0.009994885348685239, 0.023692004976805476, 0.03311573189309548, 0.08055226387537662, 0.004810378467970554, -0.04726954043255243, -0.014373737727652255, -0.03178610463730914, 0.018390930444431568, -0.03177915387782344, 0.012178954924242069, 0.04682306182048006, 0.08997555238142216, 0.046863734791187064, 0.018173134636280265, -0.048369433815752115, -0.019004456476278155, -0.04016055376208595, 0.00500548051198972, -0.047666536400592464, -0.04162315968783715, -0.047443121858355544, 0.01632238725855224, 0.00355430697417561, 0.02417750994909414, 0.04458211826208989, 0.041558214874553766, 0.0013693130399979742, 0.005384650979986858, -0.022873237664224038, 0.028121822507659575, 0.04703577631856764, 0.005764018410354529, -0.015898441077413623, -0.024896327224452206, 0.01252155446318602, 0.025442135584933665, 0.020234592258314248, 0.014928173170274102, 0.07522742830863227, -0.010033742192398339, 0.004536086248764109, -0.018826352239843157, 0.031309582412243804, 0.028517297986398297, 0.002100957762686908, -0.0441365208114647, 0.037299268649368354, -0.04212873220039095, -0.028352012175297897, 0.03926703409898173, -0.015216037484686095, -0.005231865187180432, 0.010079944205678171, -0.027411616685846532, 0.017536944121622856, 0.005573829034585638, 0.07363387664427393, 0.04347339294926995, 0.021671485639827494, -0.042727117390088394, -0.012964435092435594, -0.05309280979817214, 0.013203880968675542, 0.0009579480026342952, 0.047820656017776575, 0.046838994324768186, -0.023279618434661198, -0.007926720766658298, 0.010290422071727291, 0.043768241931094805, 0.03514874830629328, 0.0020670307100882726, 0.007739896165435231, -0.04783511956898711, 0.005515038116504649, 0.040933701409692685, 0.0008063466637349962, 0.004636071867387974, 0.029453411823519737, 0.01385716338042209, 0.009674027993083437, 0.045517963121650726, 0.038487732916783285, 0.02142735549781498, -0.020622586080488278, 0.0822883956317829, 0.09109104609648494, -0.0050497018006683695, 0.05218812820027938, 0.010871370191982602, 0.057044584437956576, 0.03883268953062676, -0.01747338799975106, 0.0679778582114192, -0.004346550571791614, 0.0001881149777621972, 0.02253408474741197, -0.01702724939268508, 0.043962037722794306, 0.028400222448707522, -0.0016983448579801054, 0.04088397283895281, -0.03478597961968459, -0.023164346276128994, -0.012117824653047182, 0.03903206309250163, -0.029815173789062975, 0.06031983318589575, -0.028072164676308624, 0.030821582145914926, -0.00923380832258768, -0.023712914680348852, -0.008758935570014116, 0.03412845361115334, -0.005192989824375979, 0.03817449003737526, -0.04941986555116675, -0.04258992018467974, 0.08071132514747278, -0.015529977315434278, 0.003607533361760167, 0.005794909260974667, -0.02116203121457419, 0.01013339479742023, -0.01836247254925389, 0.05925660915346037, 0.031977031147844254, 0.02046244659399031, -0.04928707691011529, -0.040958542730127084, 0.036553973281527985, -0.03320098717884449, 0.03229682987568572, -0.0402827300004012, -0.04696584749705291, 0.024076374503858293, 0.039077731504404356, 0.0063796186296551744, -0.03810935464402137, 0.011930607254500918, 0.01844213720823967, 0.07089472860302538, 0.0772593211665857, -0.015216205302669724, 0.048519260690551284, -0.01369663997002038, 0.042353021509255566, 0.03551472183424441, 0.014638406541060604, -0.02458416789484861, -0.010878068857102692, 0.029514845446920842, 0.014046079602405538, 0.05879192824903695, -0.03412020173419108, -0.03667368424434862, 0.0322840830884949, 0.038048310735274926, 0.018997225774383647, 0.023647515210784176, 0.028009992642924662, 0.011077369016934686, 0.009584590782952226, -0.016379188708948562, -0.009776608498777808, -0.016179948328290006, -0.02765864476492162, 0.05995227435411378, 0.0363347776981187, 0.029383463820334157, 0.012063682235216965, 0.08096419012597553, 0.02091762370090254, 0.0859265631061509, 0.042969032177966056, -0.026876787204547992, 0.056479172998594264, 0.03412652061002559, 0.04544529383714402, -0.01842692520086971, -0.013471182565557927, 0.0067862013714590054, 0.01210448240345461, 0.026075235073211547, -0.04719543112569813, 0.004181939856100817, -0.0400443827281258, -0.02417370604213011, -0.009000519782807734, -0.03429595421487392, -0.01928989213586418, 0.03135178876159241, -0.0015452379346415875, 0.04509994481895437, 0.05735537512451396, 0.09026067949958448, 0.057448652841750984, 0.05365378192281714, 0.038879099461151846, 0.02498038007776027, 0.06840693455785073, -0.023966892262725335, 0.0051494676399577175, 0.036413906642000685, 0.01319011396693464, -0.01169432476751328, 0.011971468070026114, 0.04305875100148842, -0.002730247189112734, 0.03339760905888905, -0.007096041439535743, 0.00040358183358084354, 0.006642896283689591, 0.03544972067642539, -0.030644440214110034, -0.03889867371755924, 0.008358373550009764, 0.04885545877302331, -0.050591470463184976, -0.030410538206945604, 0.001836157677060332, 0.05746494482521675, 0.05527741278278274, 0.018394551156720895, 0.024568500533731847, 0.05923580231234739, 0.05975048343040599, -0.04206097532796109, 0.005861514852906913, 0.03781342330611999, -0.032747656758318366, -0.03030136116282362, -0.018947587392928872, -0.0018139113569815711, 0.055680359969563734, 0.018158658808391005, 0.04382613120280987, -0.0072898178154033105, -0.018425416472261872, -0.004806531443365221, -0.03738688733794973, -0.011530842001822238, 0.02784136325502577, 0.0030845671073166723, 0.04133655468992171, 0.039606506744836, -0.05828328542274689, -0.058573789775551346, 0.033591124799599914, 0.03459054163317992, 0.018550734459700673, -0.027922087083872456, 0.021502632320060628, 0.05086269353444565, -0.03844620939436675, 0.04326541046162647, -0.06884140048001579, -0.04651037344636125, 0.024387648410121993, 0.029976433718916475, -0.052009881818852584, 0.0057129622419716435, -0.014445656676290912, -0.02224729526739171, -0.035249449541852225, 0.04260622533784167, -0.0033681238804624727, 0.016464914629975624, 0.02235298625927682, 0.019840128492036247, 0.04674241493765681, 0.01481229603766745, 0.028850329648820047, -0.062071631756797266, 0.004329164521333818, -0.038524255906072086, -0.006326099626904368, -0.0606983230288941, 0.013928055641349973, 0.022652971345190644, -0.029258344580381998, -0.044349450105305985, -0.05776944646340569, -0.05149396397150616, -0.06365987143939503, -0.03274495420234582, -0.07395343685383055, -0.07631129235572506, -0.04673686125166603, -0.05425911143807969, -0.04156668659839083, -0.05022256618531549, 0.009418230401961132, -0.027522405495235297, -0.03656123109685691, 0.02633425872891622, 0.013886843219240885, 0.010368912191462343, 0.045851452898290956, -0.008824808835793427, 0.029568981393192136, -0.008606392905791486, 0.011102641248276021, -0.019299547537563605, -0.06829584347870939, -0.052300926352114925, -0.04632159842524688, -0.05927398542367031, -0.0582578360151637, -0.01461857235503356, -0.038482270055680265, -0.0722159950645489, -0.08968422045335014, -0.052442672780317875, -0.0021149722570963465, -0.07982166426496463, 0.003925523322226416, 0.005531909928573648, -0.051345505456758304, 0.018899012988363193, -0.03320455626803078, 0.037991286223040543, -0.002593066951290632, 0.040483568231521605, 0.012449044116471754, 0.0007861601756956827, 0.0025789941978712934, 0.013120239227519497, 0.021253058246991443, -0.005908475781439789, -0.027692117719583718, 0.019279430415221625, -0.002771961362372564, 0.021059721396258002, -0.06378382101574108, -0.06583251156955174, -0.031158046096119146, -0.02492255602388784, -0.05981769917745305, -0.028087099317933968, -0.03266287560198533, 0.004294770663255421, 0.0034737110923285506, 0.019589526382196413, 0.006325323885221551, -0.018223573776152174, -0.001297280801419272, 0.011724909778039297, 0.03321250564948471, -0.00482403767571403, 0.004895273005679118, 0.022769406271953254, -0.04562961456520224, -0.007623344602355753, 0.0379001907672374, 0.026074883179507166, 0.04390978207176513, 0.022416249620024288, 0.008354411005556688, 0.0018395728538153238, 0.013908814300934044, -0.004475463603378105, 0.013629264809822862, -0.04585289291325122, -0.033987688086708163, 0.01830912021065923, -0.049715175279983696, -0.007458593041488471, 0.017681027312409787, 0.03349139002604198, 0.03667231324912889, -0.04336536174751635, -0.0034351412284382692, -0.015456201694676422, 0.0408603333147493, 0.04800927479818469, -0.047813245627041125, 0.0013416510473146352, 0.011731537416609894, 0.00672807705440528, 0.027866830940619616, 0.033212772061175524, -0.028642483539846254, -0.040342244787266036, -0.04350186662134325, 0.012330102684738959, 0.03208540863996244, -0.005940676657328519, -0.015705695217791856, -0.04037250085441787, -0.042150705718948724, 0.03562380208397624, -0.03575697975338967, -0.015058788418768053, -0.04063232502844069, 0.0465797752430589, -0.04883481213954821, 0.002273360167672241, 0.04835076911956604, 0.019777230400223215, -0.023243483884654314, -5.827967281798015e-05, 0.026873707858435174, 0.04190897246845455, 0.010355370940821618, 0.04602000068051657, -0.02381850183258376, 0.038433844833828425], [-0.0077013990264900856, -0.03514959931245928, -0.04351871902174579, 0.04196000055923116, -0.0229446215878517, -0.006469500014020225, 0.023139649092474446, 0.010482283231937574, 0.016278007334249157, 0.008146463194559906, -0.04153815318470631, -0.022670698068955098, 0.03917223246069138, 0.01837668139608195, -0.028810724517477626, -0.005375137873087077, 0.04720481035951129, 0.016237037627999808, 0.019163231296982653, -0.010633653494355001, -0.026977476657066592, 0.000386756562764945, 0.00915587313365126, -0.00224098269433759, 0.02908222640716167, -0.0340142971058864, -0.04879208847428129, 0.027484254413360422, 0.013614460113309135, 0.0058270314206620545, 0.04099411778082135, 0.03029586980788376, -0.03845091515212837, 0.03465150378500669, -0.024814631752664913, -0.04219756174594614, -0.0015531736736127222, -0.011070040719596228, 0.04893372860346751, -0.012490316851737408, -0.046593773635982515, -0.024440211655641402, 0.04322233487822231, 0.01799613162762117, -0.009467684692769781, -0.01494783513629415, 0.043239071201173894, 0.04075187360568057, -0.009129021617220288, 0.04498296002319035, -0.020271295724462304, 0.026345987078591718, 0.0010917962573071761, 0.04049391638797894, -0.018501283144419633, 0.04001018997776376, 0.02041915823597791, -0.03752127665732688, -0.024096319497617823, 0.03203582031261649, -0.015977884505603716, 0.01060167021321992, -0.013687471589909428, 0.030009188676632746, 0.0003043121894423863, -0.028026710205547773, 0.019037198751487107, 0.01049054384561494, 0.0039099941721861715, -0.04590166734886578, -0.010608060254245726, 0.05044783723925416, -0.019303705332797443, -0.046793820378918306, 0.03355139487887354, 0.020086246781802184, -0.049157633306300574, -0.0382199190890384, 0.009912937168307804, 0.001978361689313307, -0.03221206346457131, -0.021369852756806033, 0.049624622455276296, -0.0019390079255737658, 0.006010843695776669, 0.030484308054499254, -0.03349496680414137, -0.029194965652367892, -0.0016669708124980541, 0.010626810794545558, -0.03519382984911338, 0.040398692414572925, 0.0025176049814237657, 0.030493704984684244, -0.04810895475156065, 0.0006485263141477291, 0.020411225958111616, 0.029755438213701104, -0.012633185169611847, -0.019872980195145388, -0.028556530866375923, -0.0038403146335487864, 0.012394930306239171, -0.0315171728896393, -0.03304968601456129, -0.01993456010060125, 0.005463286207083103, -0.043297740222895356, 0.0167422511145274, -0.025537871218376324, 0.03191623219127823, 0.01819482160184025, -0.013869346988803056, 0.02924414101426646, -0.03614865563745857, -0.0370885106036634, 0.028497704732190814, 0.002497731302614525, -0.046287430330227274, 0.01606909695511082, -0.0015615038735664868, -0.007898913403582479, -0.004320462735026842, -0.05342663320009055, 0.022158610640817034, -0.010755930552119868, 0.03111952438146522, 0.05211005038990582, 0.07097609653489936, -0.005677576120845807, -0.011117181306349836, -0.01767818921822269, -0.03884288940771301, -0.008872921699554259, 0.0012185871332919445, -0.006433824124386314, -0.03067841661994863, -0.035017309319406845, 0.01607302116610642, -0.03842782141687574, 0.02029826298830848, 0.008321605668385412, -0.03286593514887536, -0.009074493220139049, -0.04396689704877399, 0.044515214861655245, 0.03949402024746461, -0.009291493078662002, -0.041862038073823236, -0.008773423920382467, -0.02717090521403816, -0.047186053569357976, 0.033157590724191104, -0.029906148971797882, 0.04661976597607932, 0.05934884695553958, 0.019434270275080226, -0.02920645340043758, -0.02071655395037387, 0.05024561959377987, 0.053872033658070105, 0.01795444794563469, 0.04626397510360818, 0.03326647669143249, -0.04309266973665576, -0.0216875852777947, -0.04802507419205678, -0.042152947115830015, -0.04476529797411612, 0.04447591117240654, -0.049191026984168475, -0.03944290206729237, -0.027830135676692503, -0.03553796010609683, -0.029526127579945716, -0.04971904914383412, -0.02746067104625189, -0.06603531891134709, -0.053253092406318356, -0.053578564246979224, 0.034819921290694264, -0.00189313885018451, 0.03027035206774396, 0.07177522196793866, 0.03231462926782939, -0.04714787854586448, -0.03589019899816412, 0.03561456433133301, 0.039305085995979226, 0.02598104815168038, 0.02921460890702293, 0.013739959175633682, 0.03622616987697022, 0.01303226779812468, -0.04025494834322986, -0.02260472814694416, 0.046614550800256865, 0.02957065813281945, -0.011271722789983537, -0.013948926077147702, -0.03923732949546248, 0.004867693150611942, 0.02838084802918608, -0.003036263058813046, -0.03507048478337664, -0.0551408931621578, 0.03808887325262893, -0.012829503148199398, -0.047298217041445094, 0.008684729267996922, -0.01575416594635639, 0.023815291645176886, -0.06052428304851897, -0.025148050711476105, -0.023602899871703005, 0.0029727691363808945, -0.03840439862653584, 0.00449580494869677, 0.03351015296664164, 0.02738302055114934, -0.02599234927414104, -0.03507681990205953, 0.0035754335627685165, -0.041910119270470315, 0.044357696039007105, -0.035096509831483665, -0.006594226254628552, -0.031510682884674374, 0.0369812241555084, -0.021757731867449368, -0.024645058384861945, -0.06677332647544584, -0.01400669286844731, -0.0318837745408671, -0.03881854612528782, -0.030989873936568182, 0.04945304214822821, -0.006330039584930712, 0.06534428863170298, 0.053051862339451354, -0.05877263145403625, -0.008624065517744754, -0.040786160495447046, -0.01950513788778373, -0.008429373894245355, -0.011249312946433958, -0.01710897687339472, 0.05440426117538969, -0.019686980828834598, -0.05260302835516039, -0.033832916735717, -0.00846314366961903, -0.04542383742252911, 0.008532760367735245, -0.011742441521160954, 0.0032992315052714307, 0.019301802028652382, 0.00229620939903438, -0.061895817133816075, -0.0062714145821151064, -0.029773280768714997, -0.03371284209684526, 0.02805665493946623, 0.0013846878764545022, -0.002977811277990293, 0.02344277063331498, 0.04403463408771856, -0.013631318617319112, 0.023697025238796045, -0.0021781925989892603, -0.03477180061604723, 0.0240643888183454, -0.0008511766315381339, 0.0348961931163569, 0.008182544601072933, 0.008847810915108957, 0.032848940008905064, -0.03352143049486718, 0.008380745235592346, -0.0230054388980764, 0.031882130408066735, -0.01878283212732614, -0.027394970993544012, 0.012154134288016987, -0.01542143593161376, -0.018073450582879767, -0.06129465452941279, -0.013213325233478167, -0.02639037065803829, 0.02487735394044062, -0.015713719582929827, -0.005788074276385512, 0.06529618174698629, -4.347501167555496e-05, 0.06948802539626181, 0.042660390540315826, -0.035490765966076254, 0.024769190010739513, -0.00922564316585008, 0.01591765757363785, 0.03508179211412541, 0.03419261653718577, 0.013523652278898155, -0.00418553445461411, -0.0642656174978121, -0.03427864348602746, -0.021148465696984163, -2.5099219766698246e-05, 0.021964497755890555, 0.03738461161981765, 0.04870262775889601, -0.026488454995866155, -0.041842046860288806, 0.01172593757101282, 0.017371228428576052, -0.019815230157726255, -0.04936495159985265, -0.026035438013451383, 0.005174144551433328, 0.006607218155676427, 0.06800477169238041, 0.08340325774384752, 0.02866791173115922, 0.05003821116388873, 0.0007923289721682362, -0.06620231370734804, 0.0018716096463017994, -0.030171565189208414, -0.046364575853649705, 0.01337666163174744, -0.008560772326026807, 0.01964729786731719, -0.033842992981662275, -0.04322892431552039, -0.004611755221597661, 0.047155161299847155, 0.04641948271877392, 0.014160941678912615, -0.032950669779235296, 0.0225521894867082, -0.006291520411815307, -0.010603736411289732, -0.0340907592589661, 0.024530240792481676, -0.011239137421126562, 0.005759808810324287, -0.06187037635961249, 0.020373549083019634, -0.013006888004105781, 0.07263817581737347, 0.0817510320011388, 0.06995410290447439, 0.004428822058688921, -0.010065808941366569, -5.2645552571159966e-05, 0.015746084502040254, -0.019543280716884246, 0.0345539687139089, -0.02464135126048468, -0.028799661369446002, -0.03249319919071271, -0.00835022432951165, 0.018811179894577222, 0.03324680670595919, -0.015933373556665284, -0.014594870678369173, 0.02285424122716646, 0.0318326087726676, 0.033048828767370114, -0.005426471873390873, -0.03693949478069031, -0.03737182235493685, 0.005749747308773818, -0.02793440071810219, -0.0517403869650753, -0.002370689329456875, -0.025473441381216773, -0.01163384237509608, 0.05840276057771269, 0.04976639357636889, 0.06778270267425084, 0.022225803047938034, -0.04143424285525019, -0.001500400574781819, 0.004522215851089825, -0.018420567411982215, 0.008636529401244954, 0.05995208999812056, 0.023180245926511387, 0.046569363637036953, -0.016832634970886738, -0.03601984742786252, -0.0024871650253255107, 0.011714340320626886, -0.0421208791619901, -0.047150646657709745, 0.008242480582690186, -0.025951079614899848, -0.0316319287353353, -0.07331335554846581, 0.0034917770844225134, -0.004430640534647196, 0.06827393835372632, 0.03360295473028443, 0.03375352769427751, -0.023549235978928783, 0.05443601108868201, -0.007542328400985842, 0.0322783702482978, -0.017358576447140173, -0.006005090994398477, -0.07100837941691139, -0.019326763801423324, -0.0484294407766833, 0.044196175568712304, -0.03275017085963054, 0.0007570845213369996, 0.015393769663721793, 0.02738958598475846, -0.04969777880363212, -0.04481093295347385, -0.04537474125825955, 0.03735874521753872, -0.04562329063432347, 0.0034976996623879812, -0.05985369241403581, -0.011898521954164444, -0.05328799610447359, 0.055175168342805975, 0.08780087859741736, 0.0418373521581865, 0.04659035413018557, 0.03299595205647314, -0.02517720553536174, 0.033640063532930684, -0.04603634320244225, 0.013875865411847104, -0.08169331087148719, -0.07972403929175335, -0.007174530534130688, -0.04732135182136036, -0.00830887455901972, 0.014867199112380268, -0.04971745405770493, 0.004789481545982602, 0.012334284204454631, 0.03179154453609979, 0.02992885522571922, -0.005858868880909407, -0.02966701092576838, -0.019894498053560913, -0.004744178485517437, -0.016138399027828706, 0.021772456424731253, -0.06402304028682346, 0.03727454966130465, 0.02500440210975866, 0.0871013113993694, 0.11329134543259133, 0.04325154366547806, -0.03483206196641137, -0.01822165629121731, -0.011478890290044149, -0.0415618703473249, -0.08887001320217339, -0.08709140175860687, -0.09051622459046403, -0.0391549468901775, 0.00582151650303845, -0.02824667882831633, -0.04238056896303072, -0.044946526885350654, 0.03167857314230022, 0.008470410952611163, 0.007503896335237037, -0.010301664331202805, -0.0028576680089950402, -0.008650234059979592, 0.0023145253224415747, -0.03131152715260453, 0.02974190235712308, -0.02778738149082223, -0.007856632683750555, 0.05285629977562855, 0.0683532828709193, 0.12113626958900789, 0.13727771852012774, 0.023423954971810178, 0.006289945751113618, -0.1022741176798572, -0.04574769663549787, -0.09478299445169398, -0.08930379735900622, -0.11431507024591192, -0.059986328830735056, -0.01153366425542568, -0.0349782610548398, 0.059835399128173546, -0.035717288666065404, -0.020343751356536956, -0.01335904123284287, 0.04702510783899418, 0.05132762627578705, 0.03971571007202679, 0.04199977213322809, -0.022808025527847917, -0.012005160795169617, -0.00894027571531844, -0.02797193465188285, -0.039659741155268956, -0.024298202590557906, -0.02070583273409838, 0.045085516424885605, 0.10001790233852588, 0.0534352520755241, -0.018123022745727375, -0.04195764452139206, -0.11826936092598361, -0.02738769203027001, -0.10154214681713362, -0.10366880850863057, -0.011773828764917567, -0.06743601665197864, -0.03920607284579212, 0.06155485329716055, 0.05509463155034818, -0.020192896088353063, 0.025531900318795094, 0.031092223058678897, -0.0374867799612936, 0.005944708286557134, -0.012738364254517222, 0.04847660935190992, -0.01520738501029374, 0.03383903419487634, -0.01440976858620346, -0.034956935533266516, -0.009813017834147413, 0.03207468891129167, -0.014442327195530277, 0.06612276231197027, 0.027986591057359518, 0.07215126418197271, 0.03343433207712957, -0.10127991689058329, -0.09619661715713551, -0.04763618421657169, 0.009239083614712418, -0.06500021165974065, 0.01359330217162156, -0.06076880311762547, -0.004995787236612511, 0.007908568872063367, -0.020900706682684882, -0.02716319664080877, -0.043237357306260875, -0.026983688399513827, 0.01328136809195214, 0.04285283902680306, -0.0024174382049111033, -0.007451346107889023, -0.014277507999474037, 0.03144881787180988, 0.029829954034777114, -0.01345101042891291, 0.028890732830054347, 0.04159395298074812, 0.011336644258922862, -0.0048832558874021765, 0.006824361805408567, 0.08168699555031383, -0.036997090338644956, -0.07196661260058988, -0.11095312976632814, -0.027540753254567743, 0.02441636681421703, 0.007966656992857632, -0.02776363948210001, -0.003151770807268841, 0.05016060326981225, -0.03215414063086105, -0.024944941010487724, -0.006518916837896178, -0.011192642539511775, -0.01634080847078671, -0.01199624835612565, -0.02964627669563669, -0.043816077557935665, 0.0412755773407182, -0.03233223993203757, 0.02458926979609671, -0.013663816211610886, -0.04223307123657637, 0.009015647512730826, 0.03919049391134126, 0.02602620197318576, -0.017740137831638733, -0.004732775809196051, 0.024904780144279756, 0.024172633704445435, 0.0022974141103023525, -0.034139428459201863, 0.022429439991068088, -0.002899683201992601, -0.006393775321916095, 0.03322928865022322, 0.0028264627295345166, -0.009180816785190733, 0.05725188988545542, 0.025407094976524897, -0.011099399281813919, -0.0002176798356864134, 